{"learner":{"attributes":{"scikit_learn":"{\"_estimator_type\": \"classifier\"}"},"feature_names":["loan_amnt","term","int_rate","installment","annual_inc","dti","fico_range_high","loan_income_ratio","emi_income_ratio","income_per_installment","credit_score_income","loan_term_ratio","interest_income_ratio","emi_loan_ratio","fraud_flag"],"feature_types":["float","int","float","float","float","float","int","float","float","float","float","float","float","float","int"],"gradient_booster":{"model":{"gbtree_model_param":{"num_parallel_tree":"1","num_trees":"100"},"iteration_indptr":[0,1,2,3,4,5,6,7,8,9,10,11,12,13,14,15,16,17,18,19,20,21,22,23,24,25,26,27,28,29,30,31,32,33,34,35,36,37,38,39,40,41,42,43,44,45,46,47,48,49,50,51,52,53,54,55,56,57,58,59,60,61,62,63,64,65,66,67,68,69,70,71,72,73,74,75,76,77,78,79,80,81,82,83,84,85,86,87,88,89,90,91,92,93,94,95,96,97,98,99,100],"tree_info":[0,0,0,0,0,0,0,0,0,0,0,0,0,0,0,0,0,0,0,0,0,0,0,0,0,0,0,0,0,0,0,0,0,0,0,0,0,0,0,0,0,0,0,0,0,0,0,0,0,0,0,0,0,0,0,0,0,0,0,0,0,0,0,0,0,0,0,0,0,0,0,0,0,0,0,0,0,0,0,0,0,0,0,0,0,0,0,0,0,0,0,0,0,0,0,0,0,0,0,0],"trees":[{"base_weights":[-0E0,1.0018485E0,-1.1706264E0,-5.595238E-1,1.696E0,-1.706629E0,5.701358E-1,1.0243902E0,-1.4470046E0,1.927928E0,1.0150753E0,-1.9438878E0,-1.1214954E0,1.5744681E0,-1.1428572E0,-1.2244898E-2,1.6923077E-1,-1.6565657E-1,6.0869563E-2,1E-1,1.9480519E-1,-3.2911394E-2,1.8387097E-1,-1.959432E-1,-4.0000003E-2,4.516129E-2,-1.7179488E-1,7.317074E-2,1.8461539E-1,-1.6875E-1,5E-2],"categories":[],"categories_nodes":[],"categories_segments":[],"categories_sizes":[],"default_left":[0,0,0,0,0,0,0,0,0,0,0,0,0,0,0,0,0,0,0,0,0,0,0,0,0,0,0,0,0,0,0],"id":0,"left_children":[1,3,5,7,9,11,13,15,17,19,21,23,25,27,29,-1,-1,-1,-1,-1,-1,-1,-1,-1,-1,-1,-1,-1,-1,-1,-1],"loss_changes":[5.8874066E2,2.941247E2,2.1697485E2,1.1956053E2,2.7653992E1,2.2427185E1,9.685228E1,2.3761536E1,2.4378952E1,6.4294434E-1,5.5684387E1,2.2100525E0,5.0974136E1,6.720215E0,1.9633928E1,0E0,0E0,0E0,0E0,0E0,0E0,0E0,0E0,0E0,0E0,0E0,0E0,0E0,0E0,0E0,0E0],"parents":[2147483647,0,0,1,1,2,2,3,3,4,4,5,5,6,6,7,7,8,8,9,9,10,10,11,11,12,12,13,13,14,14],"right_children":[2,4,6,8,10,12,14,16,18,20,22,24,26,28,30,-1,-1,-1,-1,-1,-1,-1,-1,-1,-1,-1,-1,-1,-1,-1,-1],"split_conditions":[2.0555033E1,6.1032316E4,1.1961953E5,7.421039E0,1.5726817E1,8.9952305E4,3.235911E1,6.94E2,8.3E2,6.20582E4,8.8906805E4,8.46E2,2.5742085E1,6.66E2,7.77E2,-1.2244898E-2,1.6923077E-1,-1.6565657E-1,6.0869563E-2,1E-1,1.9480519E-1,-3.2911394E-2,1.8387097E-1,-1.959432E-1,-4.0000003E-2,4.516129E-2,-1.7179488E-1,7.317074E-2,1.8461539E-1,-1.6875E-1,5E-2],"split_indices":[5,4,4,5,5,4,5,6,6,4,4,6,5,6,6,0,0,0,0,0,0,0,0,0,0,0,0,0,0,0,0],"split_type":[0,0,0,0,0,0,0,0,0,0,0,0,0,0,0,0,0,0,0,0,0,0,0,0,0,0,0,0,0,0,0],"sum_hessian":[5E2,2.695E2,2.305E2,8.3E1,1.865E2,1.7625E2,5.425E1,2.975E1,5.325E1,1.3775E2,4.875E1,1.2375E2,5.25E1,3.425E1,2E1,1.125E1,1.85E1,4.85E1,4.75E0,4E0,1.3375E2,1.875E1,3E1,1.2225E2,1.5E0,1.45E1,3.8E1,9.25E0,2.5E1,1.5E1,5E0],"tree_param":{"num_deleted":"0","num_feature":"15","num_nodes":"31","size_leaf_vector":"1"}},{"base_weights":[5.5642886E-4,9.1054523E-1,-1.0630999E0,-5.058962E-1,1.5418657E0,-1.551248E0,5.189062E-1,9.313039E-1,-1.3126929E0,1.780089E-1,9.8440486E-1,-1.76854E0,-1.0174565E0,1.4338325E0,-1.0399268E0,-3.6746975E-2,1.4267403E-1,-1.5046944E-1,5.5885494E-2,-2.1670325E-2,1.6980396E-1,-1.7825611E-1,-3.7609342E-2,4.0956773E-2,-1.5621449E-1,6.665091E-2,1.6828512E-1,-1.5399003E-1,4.5858067E-2],"categories":[],"categories_nodes":[],"categories_segments":[],"categories_sizes":[],"default_left":[0,0,0,0,0,0,0,0,0,0,0,0,0,0,0,0,0,0,0,0,0,0,0,0,0,0,0,0,0],"id":1,"left_children":[1,3,5,7,9,11,13,15,17,-1,19,21,23,25,27,-1,-1,-1,-1,-1,-1,-1,-1,-1,-1,-1,-1,-1,-1],"loss_changes":[4.822324E2,2.4088393E2,1.7820193E2,9.808039E1,2.2944794E1,1.8591034E1,7.981381E1,2.0225576E1,2.0214485E1,0E0,5.0010918E1,1.7423706E0,4.200185E1,5.5710297E0,1.635769E1,0E0,0E0,0E0,0E0,0E0,0E0,0E0,0E0,0E0,0E0,0E0,0E0,0E0,0E0],"parents":[2147483647,0,0,1,1,2,2,3,3,4,4,5,5,6,6,7,7,8,8,10,10,11,11,12,12,13,13,14,14],"right_children":[2,4,6,8,10,12,14,16,18,-1,20,22,24,26,28,-1,-1,-1,-1,-1,-1,-1,-1,-1,-1,-1,-1,-1,-1],"split_conditions":[2.0555033E1,6.1032316E4,1.1961953E5,7.421039E0,1.4686785E1,8.9952305E4,3.235911E1,6.68E2,8.3E2,1.780089E-1,8.8906805E4,8.46E2,2.5742085E1,6.66E2,7.77E2,-3.6746975E-2,1.4267403E-1,-1.5046944E-1,5.5885494E-2,-2.1670325E-2,1.6980396E-1,-1.7825611E-1,-3.7609342E-2,4.0956773E-2,-1.5621449E-1,6.665091E-2,1.6828512E-1,-1.5399003E-1,4.5858067E-2],"split_indices":[5,4,4,5,5,4,5,6,6,0,4,6,5,6,6,0,0,0,0,0,0,0,0,0,0,0,0,0,0],"split_type":[0,0,0,0,0,0,0,0,0,0,0,0,0,0,0,0,0,0,0,0,0,0,0,0,0,0,0,0,0],"sum_hessian":[4.9621747E2,2.67504E2,2.2871347E2,8.2532135E1,1.8497186E2,1.7479706E2,5.3916412E1,2.9617752E1,5.2914383E1,1.2805574E2,5.6916115E1,1.2258346E2,5.2213604E1,3.4025818E1,1.9890594E1,8.249691E0,2.1368061E1,4.816878E1,4.7456026E0,2.1472464E1,3.544365E1,1.2108406E2,1.4994001E0,1.4492609E1,3.7720997E1,9.23763E0,2.4788185E1,1.4893719E1,4.9968762E0],"tree_param":{"num_deleted":"0","num_feature":"15","num_nodes":"29","size_leaf_vector":"1"}},{"base_weights":[7.966774E-4,1.109065E0,-7.436895E-1,-2.8224462E-1,1.5810723E0,-1.3018723E0,5.84661E-1,6.3722795E-1,-1.1140683E0,1.6163819E0,6.2542844E-1,-6.794013E-1,-1.5999498E0,1.3742075E0,-9.019153E-1,-6.2395066E-2,1.19799845E-1,-1.4058843E-1,9.1486625E-2,1.6500212E-1,1.16509914E-1,-2.7074972E-2,1.18589535E-1,-1.4261048E-1,6.848108E-2,-1.663786E-1,-1.075766E-1,1.6448759E-1,7.6742254E-2,-1.563041E-1,3.0821126E-3],"categories":[],"categories_nodes":[],"categories_segments":[],"categories_sizes":[],"default_left":[0,0,0,0,0,0,0,0,0,0,0,0,0,0,0,0,0,0,0,0,0,0,0,0,0,0,0,0,0,0,0],"id":2,"left_children":[1,3,5,7,9,11,13,15,17,19,21,23,25,27,29,-1,-1,-1,-1,-1,-1,-1,-1,-1,-1,-1,-1,-1,-1,-1,-1],"loss_changes":[4.0300653E2,1.293368E2,2.1739563E2,3.9384903E1,3.9392395E0,3.7141632E1,1.0351417E2,1.8183487E1,1.7220318E1,2.1572876E-1,3.7658942E0,7.070708E1,2.8473816E0,8.149658E0,1.9059734E1,0E0,0E0,0E0,0E0,0E0,0E0,0E0,0E0,0E0,0E0,0E0,0E0,0E0,0E0,0E0,0E0],"parents":[2147483647,0,0,1,1,2,2,3,3,4,4,5,5,6,6,7,7,8,8,9,9,10,10,11,11,12,12,13,13,14,14],"right_children":[2,4,6,8,10,12,14,16,18,20,22,24,26,28,30,-1,-1,-1,-1,-1,-1,-1,-1,-1,-1,-1,-1,-1,-1,-1,-1],"split_conditions":[1.5799611E1,5.3553992E4,1.1063161E5,7.421039E0,5.3007364E-1,2.2672245E1,3.1115108E1,6.68E2,8.29E2,1.4289679E1,6.83E2,7.691159E4,9.970511E4,2.6003698E1,7.52E2,-6.2395066E-2,1.19799845E-1,-1.4058843E-1,9.1486625E-2,1.6500212E-1,1.16509914E-1,-2.7074972E-2,1.18589535E-1,-1.4261048E-1,6.848108E-2,-1.663786E-1,-1.075766E-1,1.6448759E-1,7.6742254E-2,-1.563041E-1,3.0821126E-3],"split_indices":[5,4,4,5,7,5,5,6,6,5,6,4,4,5,6,0,0,0,0,0,0,0,0,0,0,0,0,0,0,0,0],"split_type":[0,0,0,0,0,0,0,0,0,0,0,0,0,0,0,0,0,0,0,0,0,0,0,0,0,0,0,0,0,0,0],"sum_hessian":[4.864395E2,1.952676E2,2.9117194E2,4.956618E1,1.4570142E2,2.0503474E2,8.6137184E1,2.3653862E1,2.5912321E1,1.3984305E2,5.8583775E0,6.7452995E1,1.3758176E2,5.63071E1,2.9830086E1,7.2456512E0,1.640821E1,2.2922522E1,2.9897995E0,1.2767002E2,1.217302E1,2.4529953E0,3.4053822E0,4.3563225E1,2.3889767E1,1.2070768E2,1.6874067E1,3.7754955E1,1.8552141E1,1.7061264E1,1.2768822E1],"tree_param":{"num_deleted":"0","num_feature":"15","num_nodes":"31","size_leaf_vector":"1"}},{"base_weights":[9.660593E-4,1.0315964E0,-6.888276E-1,-2.5926697E-1,1.4751372E0,-1.2083926E0,5.387816E-1,5.847221E-1,-1.0300113E0,8.724891E-1,1.5395366E-1,-6.805956E-1,-1.5324754E-1,1.2086905E0,-9.7696143E-1,-5.70434E-2,1.1068654E-1,-1.339898E-1,6.868122E-2,1.5349986E-1,-2.200511E-2,-1.395425E-1,4.396863E-2,1.4996621E-1,5.534902E-2,-1.3032997E-1,1.4041959E-2],"categories":[],"categories_nodes":[],"categories_segments":[],"categories_sizes":[],"default_left":[0,0,0,0,0,0,0,0,0,0,0,0,0,0,0,0,0,0,0,0,0,0,0,0,0,0,0],"id":3,"left_children":[1,3,5,7,9,11,13,15,17,19,-1,21,-1,23,25,-1,-1,-1,-1,-1,-1,-1,-1,-1,-1,-1,-1],"loss_changes":[3.37962E2,1.0951201E2,1.8229233E2,3.2862804E1,4.1681824E0,3.3236176E1,8.787542E1,1.5294036E1,1.490369E1,1.1931977E1,0E0,6.3108196E1,0E0,1.0543243E1,9.926992E0,0E0,0E0,0E0,0E0,0E0,0E0,0E0,0E0,0E0,0E0,0E0,0E0],"parents":[2147483647,0,0,1,1,2,2,3,3,4,4,5,5,6,6,7,7,8,8,9,9,11,11,13,13,14,14],"right_children":[2,4,6,8,10,12,14,16,18,20,-1,22,-1,24,26,-1,-1,-1,-1,-1,-1,-1,-1,-1,-1,-1,-1],"split_conditions":[1.5799611E1,5.3553992E4,1.1063161E5,7.421039E0,6.20582E4,2.3748232E1,3.2170444E1,6.68E2,8.09E2,8.329272E0,1.5395366E-1,7.408919E4,-1.5324754E-1,2.6544989E1,7.98E2,-5.70434E-2,1.1068654E-1,-1.339898E-1,6.868122E-2,1.5349986E-1,-2.200511E-2,-1.395425E-1,4.396863E-2,1.4996621E-1,5.534902E-2,-1.3032997E-1,1.4041959E-2],"split_indices":[5,4,4,5,4,5,5,6,6,5,0,4,0,5,6,0,0,0,0,0,0,0,0,0,0,0,0],"split_type":[0,0,0,0,0,0,0,0,0,0,0,0,0,0,0,0,0,0,0,0,0,0,0,0,0,0,0],"sum_hessian":[4.7338577E2,1.896025E2,2.837833E2,4.859346E1,1.4100903E2,1.9940437E2,8.437891E1,2.3309826E1,2.5283634E1,1.501811E1,1.2599092E2,7.703926E1,1.2236511E2,5.8657005E1,2.5721905E1,7.227558E0,1.6082268E1,2.1603712E1,3.6799204E0,9.096854E0,5.9212565E0,4.6880287E1,3.0158974E1,3.9726006E1,1.8931E1,1.977895E1,5.9429545E0],"tree_param":{"num_deleted":"0","num_feature":"15","num_nodes":"27","size_leaf_vector":"1"}},{"base_weights":[1.1361296E-3,7.275442E-1,-8.6029017E-1,-3.9128375E-1,1.2706276E0,-1.278611E0,4.4287288E-1,5.7567716E-1,-1.2660116E0,1.447282E-1,7.7270246E-1,-1.4184837E0,-7.0068645E-1,1.1631081E0,-8.318656E-1,-2.8840113E-2,1.3416012E-1,-6.7850165E-2,-1.4742218E-1,-1.5273573E-2,1.4211826E-1,-7.9709366E-2,-1.469822E-1,5.9392393E-2,-1.2175669E-1,3.808487E-2,1.3830897E-1,-1.2451774E-1,3.611755E-2],"categories":[],"categories_nodes":[],"categories_segments":[],"categories_sizes":[],"default_left":[0,0,0,0,0,0,0,0,0,0,0,0,0,0,0,0,0,0,0,0,0,0,0,0,0,0,0,0,0],"id":4,"left_children":[1,3,5,7,9,11,13,15,17,-1,19,21,23,25,27,-1,-1,-1,-1,-1,-1,-1,-1,-1,-1,-1,-1,-1,-1],"loss_changes":[2.8740018E2,1.5189847E2,1.1511047E2,7.024711E1,1.3657532E1,1.1884613E1,4.8527233E1,2.6677122E1,4.316681E0,0E0,2.7904354E1,2.8893127E0,2.2819656E1,5.2409286E0,9.95897E0,0E0,0E0,0E0,0E0,0E0,0E0,0E0,0E0,0E0,0E0,0E0,0E0,0E0,0E0],"parents":[2147483647,0,0,1,1,2,2,3,3,4,4,5,5,6,6,7,7,8,8,10,10,11,11,12,12,13,13,14,14],"right_children":[2,4,6,8,10,12,14,16,18,-1,20,22,24,26,28,-1,-1,-1,-1,-1,-1,-1,-1,-1,-1,-1,-1,-1,-1],"split_conditions":[2.066186E1,6.1673785E4,1.1961953E5,9.482816E0,1.5799611E1,9.970511E4,3.2492695E1,3.856586E4,1.282651E1,1.447282E-1,9.104193E4,2.2052696E1,2.6003698E1,6.57E2,7.77E2,-2.8840113E-2,1.3416012E-1,-6.7850165E-2,-1.4742218E-1,-1.5273573E-2,1.4211826E-1,-7.9709366E-2,-1.469822E-1,5.9392393E-2,-1.2175669E-1,3.808487E-2,1.3830897E-1,-1.2451774E-1,3.611755E-2],"split_indices":[5,4,4,5,5,4,5,4,5,0,4,5,5,6,6,0,0,0,0,0,0,0,0,0,0,0,0,0,0],"split_type":[0,0,0,0,0,0,0,0,0,0,0,0,0,0,0,0,0,0,0,0,0,0,0,0,0,0,0,0,0],"sum_hessian":[4.5729108E2,2.4817226E2,2.0911882E2,8.1189674E1,1.6698259E2,1.5831718E2,5.0801636E1,3.8724197E1,4.2465477E1,1.2184697E2,4.513562E1,1.2629586E2,3.2021328E1,3.2516933E1,1.82847E1,1.8489124E1,2.0235073E1,1.2225977E1,3.0239498E1,1.8911589E1,2.622403E1,1.0899256E1,1.153966E2,9.094252E0,2.2927074E1,7.7366176E0,2.4780317E1,1.3547624E1,4.7370777E0],"tree_param":{"num_deleted":"0","num_feature":"15","num_nodes":"29","size_leaf_vector":"1"}},{"base_weights":[1.009324E-3,6.8264633E-1,-8.094594E-1,-5.465482E-1,1.1234587E0,-1.1957247E0,4.5107186E-1,5.058976E-1,-1.1375201E0,5.4776555E-1,1.3441845E0,-1.3454052E0,-6.339344E-1,1.0496095E0,-7.796386E-1,-3.3032864E-2,1.15016736E-1,-1.2999861E-1,3.2395758E-2,1.20895386E-1,-5.5745114E-2,7.992097E-2,1.3833897E-1,-7.366506E-2,-1.3976891E-1,4.5329954E-2,-1.21643566E-1,3.23553E-2,1.3242047E-1,-1.2814942E-1,4.4501923E-2],"categories":[],"categories_nodes":[],"categories_segments":[],"categories_sizes":[],"default_left":[0,0,0,0,0,0,0,0,0,0,0,0,0,0,0,0,0,0,0,0,0,0,0,0,0,0,0,0,0,0,0],"id":5,"left_children":[1,3,5,7,9,11,13,15,17,19,21,23,25,27,29,-1,-1,-1,-1,-1,-1,-1,-1,-1,-1,-1,-1,-1,-1,-1,-1],"loss_changes":[2.4399661E2,1.3060225E2,9.877942E1,4.037896E1,2.1742874E1,1.2156937E1,3.6214375E1,1.3151221E1,1.0225319E1,3.7735104E1,1.6118469E0,2.8303375E0,2.236293E1,6.1019897E0,1.058612E1,0E0,0E0,0E0,0E0,0E0,0E0,0E0,0E0,0E0,0E0,0E0,0E0,0E0,0E0,0E0,0E0],"parents":[2147483647,0,0,1,1,2,2,3,3,4,4,5,5,6,6,7,7,8,8,9,9,10,10,11,11,12,12,13,13,14,14],"right_children":[2,4,6,8,10,12,14,16,18,20,22,24,26,28,30,-1,-1,-1,-1,-1,-1,-1,-1,-1,-1,-1,-1,-1,-1,-1,-1],"split_conditions":[2.066186E1,5.3553992E4,1.21104625E5,7.421039E0,7.837491E4,9.970511E4,3.287206E1,6.94E2,8.3E2,1.3699009E1,6.18E2,2.2052696E1,2.7005196E1,6.66E2,7.77E2,-3.3032864E-2,1.15016736E-1,-1.2999861E-1,3.2395758E-2,1.20895386E-1,-5.5745114E-2,7.992097E-2,1.3833897E-1,-7.366506E-2,-1.3976891E-1,4.5329954E-2,-1.21643566E-1,3.23553E-2,1.3242047E-1,-1.2814942E-1,4.4501923E-2],"split_indices":[5,4,4,5,4,4,5,6,6,5,6,5,5,6,6,0,0,0,0,0,0,0,0,0,0,0,0,0,0,0,0],"split_type":[0,0,0,0,0,0,0,0,0,0,0,0,0,0,0,0,0,0,0,0,0,0,0,0,0,0,0,0,0,0,0],"sum_hessian":[4.396662E2,2.3889964E2,2.0076657E2,6.299626E1,1.7590338E2,1.53715E2,4.7051567E1,2.270518E1,4.029108E1,4.971618E1,1.261872E2,1.20274765E2,3.3440235E1,3.17551E1,1.5296467E1,1.00927E1,1.261248E1,3.635964E1,3.9314432E0,3.104804E1,1.8668139E1,9.903795E0,1.1628341E2,1.0706443E1,1.0956832E2,1.1743288E1,2.1696947E1,9.311876E0,2.2443222E1,1.0817236E1,4.4792314E0],"tree_param":{"num_deleted":"0","num_feature":"15","num_nodes":"31","size_leaf_vector":"1"}},{"base_weights":[1.0177579E-3,8.6733115E-1,-5.7397187E-1,-6.1465526E-1,1.1663827E0,-1.1635308E0,2.0193349E-1,-1.0168388E0,4.3407786E-1,5.8254015E-1,1.3286548E0,-1.2606466E0,-3.4462488E-1,9.400005E-1,-7.2484535E-1,2.776495E-2,-1.3181859E-1,1.1401101E-1,-1.1315771E-1,1.219784E-1,-5.1856693E-2,5.0033372E-2,1.3366221E-1,-8.6730525E-2,-1.3425381E-1,8.473145E-2,-1.2024301E-1,4.4799246E-2,1.4399688E-1,-1.1032567E-1,4.2600475E-2],"categories":[],"categories_nodes":[],"categories_segments":[],"categories_sizes":[],"default_left":[0,0,0,0,0,0,0,0,0,0,0,0,0,0,0,0,0,0,0,0,0,0,0,0,0,0,0,0,0,0,0],"id":6,"left_children":[1,3,5,7,9,11,13,15,17,19,21,23,25,27,29,-1,-1,-1,-1,-1,-1,-1,-1,-1,-1,-1,-1,-1,-1,-1,-1],"loss_changes":[2.1070047E2,7.55036E1,1.1653722E2,1.2668383E1,1.2561554E1,1.1066879E1,7.635228E1,8.656391E0,1.0947269E1,2.336257E1,5.2993774E-2,2.9879913E0,1.8102537E1,1.4610653E1,2.207394E1,0E0,0E0,0E0,0E0,0E0,0E0,0E0,0E0,0E0,0E0,0E0,0E0,0E0,0E0,0E0,0E0],"parents":[2147483647,0,0,1,1,2,2,3,3,4,4,5,5,6,6,7,7,8,8,9,9,10,10,11,11,12,12,13,13,14,14],"right_children":[2,4,6,8,10,12,14,16,18,20,22,24,26,28,30,-1,-1,-1,-1,-1,-1,-1,-1,-1,-1,-1,-1,-1,-1,-1,-1],"split_conditions":[1.5799611E1,4.024004E4,9.387492E4,7.73E2,6.20582E4,8.18E2,2.8300913E1,3.147907E0,9.83999E0,9.482816E0,1.4427921E3,1.9279797E1,1.2443021E-2,7.24E2,1.3645605E5,2.776495E-2,-1.3181859E-1,1.1401101E-1,-1.1315771E-1,1.219784E-1,-5.1856693E-2,5.0033372E-2,1.3366221E-1,-8.6730525E-2,-1.3425381E-1,8.473145E-2,-1.2024301E-1,4.4799246E-2,1.4399688E-1,-1.1032567E-1,4.2600475E-2],"split_indices":[5,4,4,6,4,6,5,5,5,5,0,5,10,6,4,0,0,0,0,0,0,0,0,0,0,0,0,0,0,0,0],"split_type":[0,0,0,0,0,0,0,0,0,0,0,0,0,0,0,0,0,0,0,0,0,0,0,0,0,0,0,0,0,0,0],"sum_hessian":[4.20991E2,1.677462E2,2.532448E2,2.7988817E1,1.3975739E2,1.436188E2,1.09625984E2,2.0252504E1,7.7363143E0,3.1394024E1,1.0836336E2,1.2791025E2,1.5708564E1,6.1018154E1,4.860783E1,3.8392007E0,1.6413303E1,5.519221E0,2.2170932E0,1.9817348E1,1.1576675E1,1.6401896E0,1.0672317E2,2.4038687E1,1.0387156E2,6.579053E0,9.129511E0,3.1709528E1,2.9308626E1,3.6611084E1,1.1996746E1],"tree_param":{"num_deleted":"0","num_feature":"15","num_nodes":"31","size_leaf_vector":"1"}},{"base_weights":[1.0489678E-3,5.654367E-1,-7.9365194E-1,-3.9877406E-1,1.0580901E0,-1.1175083E0,4.9221313E-1,4.695859E-1,-1.1222824E0,5.9184587E-1,1.2854357E0,-1.2923684E0,-6.295266E-1,1.1350461E0,-4.8172313E-1,-2.5014086E-2,1.135142E-1,-5.3117167E-2,-1.3117854E-1,1.2275802E-1,-2.0842146E-2,1.3031505E-1,1.8916856E-2,-1.3008194E-1,-2.4166308E-2,-1.258945E-1,2.467194E-2,5.8261998E-2,1.3233368E-1,-1.1660945E-1,5.264619E-2],"categories":[],"categories_nodes":[],"categories_segments":[],"categories_sizes":[],"default_left":[0,0,0,0,0,0,0,0,0,0,0,0,0,0,0,0,0,0,0,0,0,0,0,0,0,0,0,0,0,0,0],"id":7,"left_children":[1,3,5,7,9,11,13,15,17,19,21,23,25,27,29,-1,-1,-1,-1,-1,-1,-1,-1,-1,-1,-1,-1,-1,-1,-1,-1],"loss_changes":[1.8170915E2,1.1295053E2,7.0610756E1,5.1311943E1,1.5887131E1,1.0679947E1,2.217269E1,1.822034E1,4.2756042E0,2.7389898E1,1.7872467E0,5.5770874E-1,2.0983624E1,1.4243584E0,1.0574359E1,0E0,0E0,0E0,0E0,0E0,0E0,0E0,0E0,0E0,0E0,0E0,0E0,0E0,0E0,0E0,0E0],"parents":[2147483647,0,0,1,1,2,2,3,3,4,4,5,5,6,6,7,7,8,8,9,9,10,10,11,11,12,12,13,13,14,14],"right_children":[2,4,6,8,10,12,14,16,18,20,22,24,26,28,30,-1,-1,-1,-1,-1,-1,-1,-1,-1,-1,-1,-1,-1,-1,-1,-1],"split_conditions":[2.216725E1,6.1673785E4,1.27843555E5,9.482816E0,6.83E2,9.970511E4,3.2170444E1,3.856586E4,1.282651E1,1.3558797E1,3.4516712E-4,2.476842E1,7.32E2,6.66E2,7.52E2,-2.5014086E-2,1.135142E-1,-5.3117167E-2,-1.3117854E-1,1.2275802E-1,-2.0842146E-2,1.3031505E-1,1.8916856E-2,-1.3008194E-1,-2.4166308E-2,-1.258945E-1,2.467194E-2,5.8261998E-2,1.3233368E-1,-1.1660945E-1,5.264619E-2],"split_indices":[5,4,4,5,6,4,5,4,5,5,12,2,6,6,6,0,0,0,0,0,0,0,0,0,0,0,0,0,0,0,0],"split_type":[0,0,0,0,0,0,0,0,0,0,0,0,0,0,0,0,0,0,0,0,0,0,0,0,0,0,0,0,0,0,0],"sum_hessian":[4.0313052E2,2.358915E2,1.6723901E2,7.9833534E1,1.5605795E2,1.3369716E2,3.3541862E1,3.644406E1,4.3389473E1,5.233395E1,1.0372401E2,9.72138E1,3.6483353E1,2.0105854E1,1.3436008E1,1.7809345E1,1.8634716E1,1.1456518E1,3.1932953E1,2.8867542E1,2.3466408E1,1.0188885E2,1.8351625E0,9.6202E1,1.0117968E0,2.0977911E1,1.5505442E1,6.151681E0,1.3954173E1,7.9099727E0,5.5260363E0],"tree_param":{"num_deleted":"0","num_feature":"15","num_nodes":"31","size_leaf_vector":"1"}},{"base_weights":[9.766753E-4,7.853421E-1,-5.129407E-1,-5.376921E-1,1.0715721E0,-9.3294895E-1,4.216871E-1,-9.175535E-1,4.3990836E-1,5.1739025E-1,1.2363156E0,-5.0296545E-1,-1.2316428E0,1.0615335E0,-5.8414215E-1,2.7551344E-2,-1.210071E-1,1.08527735E-1,-1.0435986E-1,-3.5326812E-2,1.1723719E-1,4.1414604E-2,1.2449592E-1,-1.21742584E-1,2.0550655E-2,-1.2923996E-1,-9.098973E-2,1.2707011E-1,5.671524E-2,-1.1787196E-1,1.0118045E-2],"categories":[],"categories_nodes":[],"categories_segments":[],"categories_sizes":[],"default_left":[0,0,0,0,0,0,0,0,0,0,0,0,0,0,0,0,0,0,0,0,0,0,0,0,0,0,0,0,0,0,0],"id":8,"left_children":[1,3,5,7,9,11,13,15,17,19,21,23,25,27,29,-1,-1,-1,-1,-1,-1,-1,-1,-1,-1,-1,-1,-1,-1,-1,-1],"loss_changes":[1.5607436E2,5.8616325E1,9.221982E1,1.0774087E1,1.0894806E1,2.0148865E1,4.774067E1,7.4652653E0,9.261538E0,1.7904474E1,1.7138672E-1,3.4657547E1,6.7585754E-1,3.9435349E0,1.1981776E1,0E0,0E0,0E0,0E0,0E0,0E0,0E0,0E0,0E0,0E0,0E0,0E0,0E0,0E0,0E0,0E0],"parents":[2147483647,0,0,1,1,2,2,3,3,4,4,5,5,6,6,7,7,8,8,9,9,10,10,11,11,12,12,13,13,14,14],"right_children":[2,4,6,8,10,12,14,16,18,20,22,24,26,28,30,-1,-1,-1,-1,-1,-1,-1,-1,-1,-1,-1,-1,-1,-1,-1,-1],"split_conditions":[1.5799611E1,4.024004E4,1.1063161E5,7.73E2,6.20582E4,2.3748232E1,3.0544418E1,3.147907E0,9.83999E0,7.1E2,6.03E2,6.986376E4,8.01E2,2.6003698E1,7.48E2,2.7551344E-2,-1.210071E-1,1.08527735E-1,-1.0435986E-1,-3.5326812E-2,1.1723719E-1,4.1414604E-2,1.2449592E-1,-1.21742584E-1,2.0550655E-2,-1.2923996E-1,-9.098973E-2,1.2707011E-1,5.671524E-2,-1.1787196E-1,1.0118045E-2],"split_indices":[5,4,4,6,4,5,5,5,5,6,6,4,6,5,6,0,0,0,0,0,0,0,0,0,0,0,0,0,0,0,0],"split_type":[0,0,0,0,0,0,0,0,0,0,0,0,0,0,0,0,0,0,0,0,0,0,0,0,0,0,0,0,0,0,0],"sum_hessian":[3.8518677E2,1.5226479E2,2.3292198E2,2.6926146E1,1.2533864E2,1.6070518E2,7.22168E1,1.9435581E1,7.4905634E0,2.9670485E1,9.566815E1,6.69752E1,9.372999E1,4.410472E1,2.8112074E1,3.83839E0,1.5597192E1,5.4068594E0,2.0837042E0,1.2935775E1,1.6734709E1,1.5042057E0,9.416395E1,3.2988987E1,3.398621E1,7.630424E1,1.7425753E1,2.9888784E1,1.4215935E1,1.4667115E1,1.3444958E1],"tree_param":{"num_deleted":"0","num_feature":"15","num_nodes":"31","size_leaf_vector":"1"}},{"base_weights":[6.5045914E-4,6.2120324E-1,-5.8857816E-1,-3.127885E-1,1.0191089E0,-9.763544E-1,3.4910178E-1,4.845051E-1,-9.085022E-1,6.2118596E-1,1.2292373E0,-1.1786687E0,-5.231834E-1,8.5013497E-1,-8.475856E-1,-5.7003975E-2,8.5863665E-2,-1.1201755E-1,6.848978E-2,-2.442241E-2,1.1806419E-1,1.2434464E-1,2.0735634E-2,-1.23670936E-1,-3.9182942E-2,3.8153004E-2,-1.112765E-1,2.835163E-2,1.3055906E-1,-1.0927407E-1,4.4546995E-2],"categories":[],"categories_nodes":[],"categories_segments":[],"categories_sizes":[],"default_left":[0,0,0,0,0,0,0,0,0,0,0,0,0,0,0,0,0,0,0,0,0,0,0,0,0,0,0,0,0,0,0],"id":9,"left_children":[1,3,5,7,9,11,13,15,17,19,21,23,25,27,29,-1,-1,-1,-1,-1,-1,-1,-1,-1,-1,-1,-1,-1,-1,-1,-1],"loss_changes":[1.349198E2,6.710886E1,6.9162025E1,2.6304407E1,9.793732E0,1.1683701E1,3.4363083E1,9.934692E0,1.1396854E1,2.2392378E1,9.270935E-1,3.7148743E0,2.3471245E1,9.965559E0,5.8948E0,0E0,0E0,0E0,0E0,0E0,0E0,0E0,0E0,0E0,0E0,0E0,0E0,0E0,0E0,0E0,0E0],"parents":[2147483647,0,0,1,1,2,2,3,3,4,4,5,5,6,6,7,7,8,8,9,9,10,10,11,11,12,12,13,13,14,14],"right_children":[2,4,6,8,10,12,14,16,18,20,22,24,26,28,30,-1,-1,-1,-1,-1,-1,-1,-1,-1,-1,-1,-1,-1,-1,-1,-1],"split_conditions":[1.873845E1,5.4877336E4,1.151885E5,7.421039E0,6.86E2,8.6593875E4,3.3422867E1,2.9446527E4,8.3E2,8.8906805E4,1.418051E-2,8.29E2,2.5742085E1,7.09E2,1.4268962E5,-5.7003975E-2,8.5863665E-2,-1.1201755E-1,6.848978E-2,-2.442241E-2,1.1806419E-1,1.2434464E-1,2.0735634E-2,-1.23670936E-1,-3.9182942E-2,3.8153004E-2,-1.112765E-1,2.835163E-2,1.3055906E-1,-1.0927407E-1,4.4546995E-2],"split_indices":[5,4,4,5,6,4,5,4,6,4,10,6,5,6,4,0,0,0,0,0,0,0,0,0,0,0,0,0,0,0,0],"split_type":[0,0,0,0,0,0,0,0,0,0,0,0,0,0,0,0,0,0,0,0,0,0,0,0,0,0,0,0,0,0,0],"sum_hessian":[3.6698883E2,1.7871687E2,1.8827196E2,5.3455746E1,1.2526112E2,1.3316182E2,5.5110134E1,2.2939959E1,3.0515785E1,4.4654514E1,8.0606606E1,9.095487E1,4.220695E1,3.90501E1,1.6060036E1,5.8702264E0,1.7069733E1,2.7199493E1,3.3162928E0,1.7754276E1,2.6900238E1,7.928731E1,1.3192992E0,8.417409E1,6.7807813E0,1.6792194E1,2.5414755E1,1.8124474E1,2.0925627E1,1.3630665E1,2.4293709E0],"tree_param":{"num_deleted":"0","num_feature":"15","num_nodes":"31","size_leaf_vector":"1"}},{"base_weights":[7.618527E-4,7.765407E-1,-4.3322378E-1,-4.3657663E-1,1.0624183E0,-1.0361954E0,1.5928152E-1,-8.054535E-1,4.7946182E-1,6.9256717E-1,1.21548556E-1,-1.2624394E0,-6.4593226E-1,7.4587E-1,-6.560869E-1,2.5097553E-2,-1.10743634E-1,1.004013E-1,-9.474432E-2,-1.0356454E-2,1.2548897E-1,-1.2807116E-1,-3.4153022E-2,-1.1492884E-1,2.5989467E-2,2.2421656E-2,1.1997279E-1,-9.830417E-2,3.8878463E-2],"categories":[],"categories_nodes":[],"categories_segments":[],"categories_sizes":[],"default_left":[0,0,0,0,0,0,0,0,0,0,0,0,0,0,0,0,0,0,0,0,0,0,0,0,0,0,0,0,0],"id":10,"left_children":[1,3,5,7,9,11,13,15,17,19,-1,21,23,25,27,-1,-1,-1,-1,-1,-1,-1,-1,-1,-1,-1,-1,-1,-1],"loss_changes":[1.1826342E2,4.416503E1,8.0640884E1,8.746228E0,4.947975E0,9.053711E0,5.5243904E1,6.023961E0,6.736658E0,1.457259E1,0E0,7.3558044E-1,1.9935093E1,1.5605343E1,1.692767E1,0E0,0E0,0E0,0E0,0E0,0E0,0E0,0E0,0E0,0E0,0E0,0E0,0E0,0E0],"parents":[2147483647,0,0,1,1,2,2,3,3,4,4,5,5,6,6,7,7,8,8,9,9,11,11,12,12,13,13,14,14],"right_children":[2,4,6,8,10,12,14,16,18,20,-1,22,24,26,28,-1,-1,-1,-1,-1,-1,-1,-1,-1,-1,-1,-1,-1,-1],"split_conditions":[1.4289679E1,4.024004E4,8.6593875E4,7.73E2,6.816389E4,7.51E2,2.8300913E1,3.147907E0,9.83999E0,7.1E2,1.21548556E-1,8.508054E4,6.663652E4,7.04E2,1.3645605E5,2.5097553E-2,-1.10743634E-1,1.004013E-1,-9.474432E-2,-1.0356454E-2,1.2548897E-1,-1.2807116E-1,-3.4153022E-2,-1.1492884E-1,2.5989467E-2,2.2421656E-2,1.1997279E-1,-9.830417E-2,3.8878463E-2],"split_indices":[5,4,4,6,4,6,5,5,5,6,0,4,4,6,4,0,0,0,0,0,0,0,0,0,0,0,0,0,0],"split_type":[0,0,0,0,0,0,0,0,0,0,0,0,0,0,0,0,0,0,0,0,0,0,0,0,0,0,0,0,0],"sum_hessian":[3.492676E2,1.2501159E2,2.2425603E2,2.3740784E1,1.01270805E2,1.1077521E2,1.1348083E2,1.701128E1,6.729502E0,3.1260859E1,7.000994E1,6.8708534E1,4.206667E1,6.604924E1,4.743159E1,3.8192558E0,1.3192024E1,5.137319E0,1.5921834E0,1.3277916E1,1.7982943E1,6.6988686E1,1.7198496E0,2.6867807E1,1.5198863E1,3.1424587E1,3.462465E1,3.6172035E1,1.1259554E1],"tree_param":{"num_deleted":"0","num_feature":"15","num_nodes":"29","size_leaf_vector":"1"}},{"base_weights":[6.3029956E-4,4.699431E-1,-6.6734E-1,-1.4964974E-1,1.0302385E0,-9.7432387E-1,4.354406E-1,5.602372E-1,-7.1346664E-1,2.3493858E-1,1.1032529E0,-1.1607808E0,-5.243534E-1,7.3440784E-1,-1.0711529E-1,-1.9485986E-2,1.0637277E-1,-1.1583934E-1,4.0317285E-3,1.0242244E-1,-7.6183476E-2,1.1181339E-1,2.05061E-2,-1.18088596E-1,-4.178974E-2,-1.1433847E-1,2.8334767E-2,1.0428063E-2,1.1242403E-1],"categories":[],"categories_nodes":[],"categories_segments":[],"categories_sizes":[],"default_left":[0,0,0,0,0,0,0,0,0,0,0,0,0,0,0,0,0,0,0,0,0,0,0,0,0,0,0,0,0],"id":11,"left_children":[1,3,5,7,9,11,13,15,17,19,21,23,25,27,-1,-1,-1,-1,-1,-1,-1,-1,-1,-1,-1,-1,-1,-1,-1],"loss_changes":[1.04987434E2,6.8439575E1,4.7210415E1,3.81351E1,5.746208E0,8.487473E0,1.4653022E1,1.628689E1,1.7817133E1,8.6216135E0,1.0331802E0,6.3908386E-1,1.7117254E1,6.338544E0,0E0,0E0,0E0,0E0,0E0,0E0,0E0,0E0,0E0,0E0,0E0,0E0,0E0,0E0,0E0],"parents":[2147483647,0,0,1,1,2,2,3,3,4,4,5,5,6,6,7,7,8,8,9,9,10,10,11,11,12,12,13,13],"right_children":[2,4,6,8,10,12,14,16,18,20,22,24,26,28,-1,-1,-1,-1,-1,-1,-1,-1,-1,-1,-1,-1,-1,-1,-1],"split_conditions":[2.216725E1,7.594505E4,1.27843555E5,9.482816E0,6.18E2,9.970511E4,3.6804554E1,3.856586E4,7.51E2,1.4544458E1,2.7522145E-4,8.45E2,7.32E2,1.3645605E5,-1.0711529E-1,-1.9485986E-2,1.0637277E-1,-1.1583934E-1,4.0317285E-3,1.0242244E-1,-7.6183476E-2,1.1181339E-1,2.05061E-2,-1.18088596E-1,-4.178974E-2,-1.1433847E-1,2.8334767E-2,1.0428063E-2,1.1242403E-1],"split_indices":[5,4,4,5,6,4,5,4,6,5,12,6,6,4,0,0,0,0,0,0,0,0,0,0,0,0,0,0,0],"split_type":[0,0,0,0,0,0,0,0,0,0,0,0,0,0,0,0,0,0,0,0,0,0,0,0,0,0,0,0,0],"sum_hessian":[3.3290158E2,1.9570007E2,1.3720149E2,9.328043E1,1.0241964E2,1.07416245E2,2.9785252E1,4.1294266E1,5.198617E1,8.966869E0,9.3452774E1,7.482916E1,3.2587082E1,2.5281038E1,4.5042124E0,1.6764746E1,2.452952E1,3.235287E1,1.96333E1,4.9889083E0,3.977961E0,9.168882E1,1.7639495E0,7.228331E1,2.5458531E0,1.8212902E1,1.4374179E1,1.0146952E1,1.5134087E1],"tree_param":{"num_deleted":"0","num_feature":"15","num_nodes":"29","size_leaf_vector":"1"}},{"base_weights":[2.2856636E-4,4.8833764E-1,-5.841407E-1,-2.559752E-1,9.147282E-1,-9.325777E-1,3.1610245E-1,3.2146716E-1,-9.732905E-1,4.9760926E-1,1.1319609E0,-1.2088039E0,-6.0376585E-1,1.0038851E0,-3.7114188E-1,-3.6556605E-2,8.864319E-2,-1.05891764E-1,-6.7371964E-3,-4.2170193E-2,1.06682815E-1,1.1479675E-1,1.8539459E-2,-2.5682384E-2,-1.2312334E-1,-1.0597541E-1,1.7365284E-2,4.5794766E-2,1.19138554E-1,-1.0419323E-1,3.5837367E-2],"categories":[],"categories_nodes":[],"categories_segments":[],"categories_sizes":[],"default_left":[0,0,0,0,0,0,0,0,0,0,0,0,0,0,0,0,0,0,0,0,0,0,0,0,0,0,0,0,0,0,0],"id":12,"left_children":[1,3,5,7,9,11,13,15,17,19,21,23,25,27,29,-1,-1,-1,-1,-1,-1,-1,-1,-1,-1,-1,-1,-1,-1,-1,-1],"loss_changes":[9.1057526E1,5.5438442E1,4.5869568E1,2.6878057E1,9.477364E0,8.807121E0,1.9889154E1,1.4407426E1,2.1667023E0,2.1240635E1,8.7926483E-1,8.8092804E-1,1.7885979E1,1.5944824E0,1.0837211E1,0E0,0E0,0E0,0E0,0E0,0E0,0E0,0E0,0E0,0E0,0E0,0E0,0E0,0E0,0E0,0E0],"parents":[2147483647,0,0,1,1,2,2,3,3,4,4,5,5,6,6,7,7,8,8,9,9,10,10,11,11,12,12,13,13,14,14],"right_children":[2,4,6,8,10,12,14,16,18,20,22,24,26,28,30,-1,-1,-1,-1,-1,-1,-1,-1,-1,-1,-1,-1,-1,-1,-1,-1],"split_conditions":[2.066186E1,6.1673785E4,1.1961953E5,1.0088925E1,6.83E2,7.29E2,3.0544418E1,7.03E2,8.3E2,8.8906805E4,3.4516712E-4,5.8213853E-5,8.9952305E4,6.57E2,7.48E2,-3.6556605E-2,8.864319E-2,-1.05891764E-1,-6.7371964E-3,-4.2170193E-2,1.06682815E-1,1.1479675E-1,1.8539459E-2,-2.5682384E-2,-1.2312334E-1,-1.0597541E-1,1.7365284E-2,4.5794766E-2,1.19138554E-1,-1.0419323E-1,3.5837367E-2],"split_indices":[5,4,4,5,6,6,5,6,6,4,12,12,4,6,6,0,0,0,0,0,0,0,0,0,0,0,0,0,0,0,0],"split_type":[0,0,0,0,0,0,0,0,0,0,0,0,0,0,0,0,0,0,0,0,0,0,0,0,0,0,0,0,0,0,0],"sum_hessian":[3.1723572E2,1.7294412E2,1.4429158E2,6.313483E1,1.09809296E2,1.04001945E2,4.0289635E1,3.5283382E1,2.7851448E1,3.8730892E1,7.10784E1,5.5066097E1,4.8935852E1,1.9906649E1,2.0382984E1,1.608091E1,1.9202473E1,2.529197E1,2.559479E0,1.4909926E1,2.3820967E1,6.96872E1,1.3911927E0,1.5541234E0,5.3511974E1,3.061545E1,1.83204E1,5.9690814E0,1.3937567E1,1.039579E1,9.987195E0],"tree_param":{"num_deleted":"0","num_feature":"15","num_nodes":"31","size_leaf_vector":"1"}},{"base_weights":[1.6556986E-4,6.957432E-1,-3.8447365E-1,-3.9540824E-1,9.835347E-1,-8.5731745E-1,2.3717526E-1,-1.1746697E0,-6.4022746E-4,4.6241835E-1,1.0920055E0,-1.0695009E0,-2.9952607E-1,7.1082413E-1,-6.683399E-1,-1.2799808E-1,-2.6214078E-2,1.2115735E-1,-5.476409E-2,-8.734171E-3,1.1231207E-1,1.1526828E-1,5.9477534E-2,-1.176097E-1,-7.6413505E-2,4.678456E-2,-1.1189898E-1,2.8053582E-2,1.1707753E-1,-8.622777E-2,5.7241935E-2],"categories":[],"categories_nodes":[],"categories_segments":[],"categories_sizes":[],"default_left":[0,0,0,0,0,0,0,0,0,0,0,0,0,0,0,0,0,0,0,0,0,0,0,0,0,0,0,0,0,0,0],"id":13,"left_children":[1,3,5,7,9,11,13,15,17,19,21,23,25,27,29,-1,-1,-1,-1,-1,-1,-1,-1,-1,-1,-1,-1,-1,-1,-1,-1],"loss_changes":[8.1279335E1,3.435817E1,5.7704834E1,7.1637897E0,4.349724E0,1.2855484E1,3.705813E1,4.1698074E-1,1.15772E1,6.1027575E0,1.4370117E0,1.7137756E0,2.0688433E1,1.0851009E1,7.666458E0,0E0,0E0,0E0,0E0,0E0,0E0,0E0,0E0,0E0,0E0,0E0,0E0,0E0,0E0,0E0,0E0],"parents":[2147483647,0,0,1,1,2,2,3,3,4,4,5,5,6,6,7,7,8,8,9,9,10,10,11,11,12,12,13,13,14,14],"right_children":[2,4,6,8,10,12,14,16,18,20,22,24,26,28,30,-1,-1,-1,-1,-1,-1,-1,-1,-1,-1,-1,-1,-1,-1,-1,-1],"split_conditions":[1.4289679E1,4.024004E4,9.752505E4,6.78E2,5.4877336E4,7.82E2,3.1115108E1,3.639432E4,4.2452006E0,7.21E2,4.0642217E-1,7.27E2,2.4777803E1,7.11E2,1.4268962E5,-1.2799808E-1,-2.6214078E-2,1.2115735E-1,-5.476409E-2,-8.734171E-3,1.1231207E-1,1.1526828E-1,5.9477534E-2,-1.176097E-1,-7.6413505E-2,4.678456E-2,-1.1189898E-1,2.8053582E-2,1.1707753E-1,-8.622777E-2,5.7241935E-2],"split_indices":[5,4,4,6,4,6,5,4,5,6,7,6,5,6,4,0,0,0,0,0,0,0,0,0,0,0,0,0,0,0,0],"split_type":[0,0,0,0,0,0,0,0,0,0,0,0,0,0,0,0,0,0,0,0,0,0,0,0,0,0,0,0,0,0,0],"sum_hessian":[3.0179544E2,1.0717409E2,1.9462134E2,2.2289665E1,8.488442E1,1.10325516E2,8.429582E1,6.830616E0,1.5459048E1,1.5531397E1,6.935303E1,7.925832E1,3.1067194E1,5.5487118E1,2.8808706E1,5.7628736E0,1.0677423E0,4.4289865E0,1.1030062E1,8.9511175E0,6.58028E0,6.0635433E1,8.717591E0,5.6636433E1,2.2621893E1,1.6265112E1,1.4802081E1,2.9499758E1,2.598736E1,2.5178242E1,3.6304636E0],"tree_param":{"num_deleted":"0","num_feature":"15","num_nodes":"31","size_leaf_vector":"1"}},{"base_weights":[4.0952014E-4,3.762152E-1,-6.5395683E-1,-1.8438007E-1,9.046559E-1,-9.538297E-1,3.131233E-1,4.016047E-1,-7.6316136E-1,3.16432E-1,1.0746531E0,-1.0773587E0,-4.603558E-1,6.0439646E-1,-9.8960705E-2,-2.3967814E-2,8.968915E-2,-1.1767544E-1,-1.0751664E-2,9.936174E-2,-5.0178137E-2,8.584273E-2,1.1856379E-1,8.034202E-3,-1.0975242E-1,4.423618E-2,-1.00252464E-1,-9.693616E-3,9.768986E-2],"categories":[],"categories_nodes":[],"categories_segments":[],"categories_sizes":[],"default_left":[0,0,0,0,0,0,0,0,0,0,0,0,0,0,0,0,0,0,0,0,0,0,0,0,0,0,0,0,0],"id":14,"left_children":[1,3,5,7,9,11,13,15,17,19,21,23,25,27,-1,-1,-1,-1,-1,-1,-1,-1,-1,-1,-1,-1,-1,-1,-1],"loss_changes":[7.1341805E1,5.4757057E1,3.0989872E1,3.0914864E1,9.162384E0,4.443451E0,1.0388651E1,1.4666731E1,1.2278984E1,1.3089038E1,7.4137115E-1,1.5837021E0,9.237904E0,5.7658467E0,0E0,0E0,0E0,0E0,0E0,0E0,0E0,0E0,0E0,0E0,0E0,0E0,0E0,0E0,0E0],"parents":[2147483647,0,0,1,1,2,2,3,3,4,4,5,5,6,6,7,7,8,8,9,9,10,10,11,11,12,12,13,13],"right_children":[2,4,6,8,10,12,14,16,18,20,22,24,26,28,-1,-1,-1,-1,-1,-1,-1,-1,-1,-1,-1,-1,-1,-1,-1],"split_conditions":[2.3748232E1,7.594505E4,1.27843555E5,1.0981783E1,6.49E2,8.01E2,3.6804554E1,4.1514973E4,7.52E2,6.0655274E-3,7.2E2,5.181083E0,8.1628105E-3,6.79E2,-9.8960705E-2,-2.3967814E-2,8.968915E-2,-1.1767544E-1,-1.0751664E-2,9.936174E-2,-5.0178137E-2,8.584273E-2,1.1856379E-1,8.034202E-3,-1.0975242E-1,4.423618E-2,-1.00252464E-1,-9.693616E-3,9.768986E-2],"split_indices":[5,4,4,5,6,6,5,4,6,10,6,2,10,6,0,0,0,0,0,0,0,0,0,0,0,0,0,0,0],"split_type":[0,0,0,0,0,0,0,0,0,0,0,0,0,0,0,0,0,0,0,0,0,0,0,0,0,0,0,0,0],"sum_hessian":[2.8810764E2,1.8327628E2,1.0483135E2,8.924839E1,9.402788E1,8.0029465E1,2.480189E1,4.4500328E1,4.474806E1,2.1723091E1,7.2304794E1,6.306058E1,1.696888E1,2.0707928E1,4.0939627E0,1.9616955E1,2.4883375E1,2.6951649E1,1.7796408E1,1.1768579E1,9.954512E0,2.7487331E1,4.481746E1,1.0285234E0,6.203206E1,6.436357E0,1.0532522E1,7.4399834E0,1.3267944E1],"tree_param":{"num_deleted":"0","num_feature":"15","num_nodes":"29","size_leaf_vector":"1"}},{"base_weights":[3.92249E-4,5.081697E-1,-4.5092413E-1,-1.2587115E-1,9.458052E-1,-8.3241665E-1,2.4726446E-1,4.8343837E-1,-6.489008E-1,5.82657E-1,1.1404452E0,-1.0431265E0,-3.545632E-1,6.437418E-1,-7.725854E-1,-4.740078E-2,7.837407E-2,-8.306139E-2,8.560271E-2,-2.174492E-2,1.10879235E-1,1.1514618E-1,3.3946555E-2,-1.214258E-1,-8.316731E-2,-1.1109056E-1,2.6214337E-2,1.432798E-2,1.130447E-1,-1.00304805E-1,3.3727657E-2],"categories":[],"categories_nodes":[],"categories_segments":[],"categories_sizes":[],"default_left":[0,0,0,0,0,0,0,0,0,0,0,0,0,0,0,0,0,0,0,0,0,0,0,0,0,0,0,0,0,0,0],"id":15,"left_children":[1,3,5,7,9,11,13,15,17,19,21,23,25,27,29,-1,-1,-1,-1,-1,-1,-1,-1,-1,-1,-1,-1,-1,-1,-1,-1],"loss_changes":[6.3434914E1,3.6261894E1,3.924011E1,1.7546368E1,4.7908707E0,9.1953125E0,2.174697E1,7.717699E0,8.784815E0,1.2439257E1,4.330063E-2,1.3571625E0,1.455757E1,9.188255E0,4.2174454E0,0E0,0E0,0E0,0E0,0E0,0E0,0E0,0E0,0E0,0E0,0E0,0E0,0E0,0E0,0E0,0E0],"parents":[2147483647,0,0,1,1,2,2,3,3,4,4,5,5,6,6,7,7,8,8,9,9,10,10,11,11,12,12,13,13,14,14],"right_children":[2,4,6,8,10,12,14,16,18,20,22,24,26,28,30,-1,-1,-1,-1,-1,-1,-1,-1,-1,-1,-1,-1,-1,-1,-1,-1],"split_conditions":[1.8074762E1,6.20582E4,1.1119488E5,7.68065E0,6.8E2,7.75E2,3.359993E1,2.9446527E4,8.31E2,8.8906805E4,3.4516712E-4,6.86E2,6.702988E4,7.09E2,1.4268962E5,-4.740078E-2,7.837407E-2,-8.306139E-2,8.560271E-2,-2.174492E-2,1.10879235E-1,1.1514618E-1,3.3946555E-2,-1.214258E-1,-8.316731E-2,-1.1109056E-1,2.6214337E-2,1.432798E-2,1.130447E-1,-1.00304805E-1,3.3727657E-2],"split_indices":[5,4,4,5,6,6,5,4,6,4,12,6,4,6,4,0,0,0,0,0,0,0,0,0,0,0,0,0,0,0,0],"split_type":[0,0,0,0,0,0,0,0,0,0,0,0,0,0,0,0,0,0,0,0,0,0,0,0,0,0,0,0,0,0,0],"sum_hessian":[2.7480502E2,1.2925446E2,1.4555057E2,5.307395E1,7.6180504E1,9.399768E1,5.155289E1,2.4549925E1,2.8524027E1,2.7976698E1,4.8203808E1,6.4412155E1,2.9585526E1,3.7387062E1,1.4165827E1,5.7234764E0,1.8826448E1,2.5850742E1,2.6732862E0,1.1331432E1,1.6645266E1,4.711818E1,1.0856285E0,3.2979244E1,3.1432907E1,1.2928446E1,1.665708E1,1.90712E1,1.8315863E1,1.1809771E1,2.356056E0],"tree_param":{"num_deleted":"0","num_feature":"15","num_nodes":"31","size_leaf_vector":"1"}},{"base_weights":[6.7498477E-4,3.1703457E-1,-6.8050253E-1,-1.9013926E-1,8.4349227E-1,-9.073546E-1,5.1415074E-1,3.8862532E-1,-7.1763015E-1,2.9775602E-1,1.009017E0,-1.0576875E0,-4.5494777E-1,9.266845E-1,-8.2474835E-2,-2.2645555E-2,8.5865684E-2,-1.14498734E-1,-1.2097365E-2,-2.4684574E-2,1.0971564E-1,7.539127E-2,1.1562417E-1,-7.574096E-2,-1.1214303E-1,-9.49774E-2,2.9618947E-2,4.1330266E-3,1.1103628E-1],"categories":[],"categories_nodes":[],"categories_segments":[],"categories_sizes":[],"default_left":[0,0,0,0,0,0,0,0,0,0,0,0,0,0,0,0,0,0,0,0,0,0,0,0,0,0,0,0,0],"id":16,"left_children":[1,3,5,7,9,11,13,15,17,19,21,23,25,27,-1,-1,-1,-1,-1,-1,-1,-1,-1,-1,-1,-1,-1,-1,-1],"loss_changes":[5.6895016E1,4.8297596E1,2.3158432E1,2.8561388E1,7.7071E0,4.329296E0,8.497381E0,1.3152836E1,1.2309483E1,9.869571E0,1.6670837E0,1.5232468E-1,7.490504E0,1.7711916E0,0E0,0E0,0E0,0E0,0E0,0E0,0E0,0E0,0E0,0E0,0E0,0E0,0E0,0E0,0E0],"parents":[2147483647,0,0,1,1,2,2,3,3,4,4,5,5,6,6,7,7,8,8,9,9,10,10,11,11,12,12,13,13],"right_children":[2,4,6,8,10,12,14,16,18,20,22,24,26,28,-1,-1,-1,-1,-1,-1,-1,-1,-1,-1,-1,-1,-1,-1,-1],"split_conditions":[2.5742085E1,7.837491E4,1.3645605E5,1.0981783E1,6.49E2,1.16286266E5,3.6804554E1,4.1514973E4,7.51E2,1.19084375E5,7.2E2,2.8179745E1,7.52E2,6.42E2,-8.2474835E-2,-2.2645555E-2,8.5865684E-2,-1.14498734E-1,-1.2097365E-2,-2.4684574E-2,1.0971564E-1,7.539127E-2,1.1562417E-1,-7.574096E-2,-1.1214303E-1,-9.49774E-2,2.9618947E-2,4.1330266E-3,1.1103628E-1],"split_indices":[5,4,4,5,6,4,5,4,6,4,6,5,6,6,0,0,0,0,0,0,0,0,0,0,0,0,0,0,0],"split_type":[0,0,0,0,0,0,0,0,0,0,0,0,0,0,0,0,0,0,0,0,0,0,0,0,0,0,0,0,0],"sum_hessian":[2.6201648E2,1.7928543E2,8.273104E1,9.1640495E1,8.764493E1,6.9730446E1,1.300059E1,4.382206E1,4.781844E1,2.104809E1,6.659684E1,5.1334347E1,1.8396103E1,1.017378E1,2.8268101E0,1.9206604E1,2.4615456E1,2.7326637E1,2.0491802E1,1.2930342E1,8.117749E0,2.6609642E1,3.9987194E1,1.1244817E1,4.008953E1,1.0930786E1,7.465316E0,1.9585097E0,8.215271E0],"tree_param":{"num_deleted":"0","num_feature":"15","num_nodes":"29","size_leaf_vector":"1"}},{"base_weights":[5.190205E-4,6.179558E-1,-3.2348907E-1,-1.9311488E-1,9.5375925E-1,-8.3095884E-1,1.4661394E-1,-5.999303E-1,6.8169636E-1,9.9520206E-1,-4.9924124E-2,-9.661112E-1,-1.15822E-3,6.3491863E-1,-5.124065E-1,4.5388997E-2,-9.729796E-2,1.00322954E-1,-2.8263211E-2,5.1758777E-2,1.0477122E-1,-5.1268417E-2,4.8631787E-2,-1.1363726E-1,-6.800095E-2,7.7026434E-2,-8.9286774E-2,-2.6773764E-2,8.458915E-2,-7.9823144E-2,2.779454E-2],"categories":[],"categories_nodes":[],"categories_segments":[],"categories_sizes":[],"default_left":[0,0,0,0,0,0,0,0,0,0,0,0,0,0,0,0,0,0,0,0,0,0,0,0,0,0,0,0,0,0,0],"id":17,"left_children":[1,3,5,7,9,11,13,15,17,19,21,23,25,27,29,-1,-1,-1,-1,-1,-1,-1,-1,-1,-1,-1,-1,-1,-1,-1,-1],"loss_changes":[5.043467E1,2.3815296E1,3.9566147E1,9.7460375E0,2.6089745E0,8.932781E0,2.8219408E1,7.690918E0,3.010858E0,9.408226E-1,1.0910645E0,2.5641289E0,9.051426E0,9.793169E0,8.680754E0,0E0,0E0,0E0,0E0,0E0,0E0,0E0,0E0,0E0,0E0,0E0,0E0,0E0,0E0,0E0,0E0],"parents":[2147483647,0,0,1,1,2,2,3,3,4,4,5,5,6,6,7,7,8,8,9,9,10,10,11,11,12,12,13,13,14,14],"right_children":[2,4,6,8,10,12,14,16,18,20,22,24,26,28,30,-1,-1,-1,-1,-1,-1,-1,-1,-1,-1,-1,-1,-1,-1,-1,-1],"split_conditions":[1.3699009E1,4.506915E4,8.9952305E4,7.73E2,5.9639347E-1,8.18E2,2.8300913E1,3.147907E0,9.83999E0,5.409566E4,3.6463496E4,7.33E2,1.3204722E-2,6.34E2,1.3645605E5,4.5388997E-2,-9.729796E-2,1.00322954E-1,-2.8263211E-2,5.1758777E-2,1.0477122E-1,-5.1268417E-2,4.8631787E-2,-1.1363726E-1,-6.800095E-2,7.7026434E-2,-8.9286774E-2,-2.6773764E-2,8.458915E-2,-7.9823144E-2,2.779454E-2],"split_indices":[5,4,4,6,7,6,5,5,5,4,0,6,10,6,4,0,0,0,0,0,0,0,0,0,0,0,0,0,0,0,0],"split_type":[0,0,0,0,0,0,0,0,0,0,0,0,0,0,0,0,0,0,0,0,0,0,0,0,0,0,0,0,0,0,0],"sum_hessian":[2.5010541E2,8.576416E1,1.6434125E2,2.5236065E1,6.0528095E1,7.86606E1,8.568065E1,1.744008E1,7.7959824E0,5.8136066E1,2.39203E0,6.7502045E1,1.1158549E1,4.9235737E1,3.644491E1,4.5029826E0,1.29370985E1,5.8163238E0,1.9796588E0,6.833927E0,5.130214E1,1.3075697E0,1.0844603E0,4.045502E1,2.7047026E1,6.055821E0,5.1027284E0,9.276555E0,3.9959183E1,2.6758078E1,9.6868305E0],"tree_param":{"num_deleted":"0","num_feature":"15","num_nodes":"31","size_leaf_vector":"1"}},{"base_weights":[4.5179282E-4,4.6030238E-1,-4.0537742E-1,-1.1447677E-1,8.9557153E-1,-7.411699E-1,2.8343356E-1,4.2536747E-1,-5.916722E-1,5.3129643E-1,1.1042717E0,-1.0983319E0,-4.1590312E-1,6.544152E-1,-6.079054E-1,-3.125533E-2,7.742515E-2,-7.692842E-2,7.983116E-2,-2.0676412E-2,1.0662174E-1,1.11718275E-1,3.0099405E-2,-1.1168504E-1,-2.1269048E-2,8.5448045E-3,-1.0865153E-1,2.5523726E-2,1.1775374E-1,-9.65228E-2,4.3221875E-4],"categories":[],"categories_nodes":[],"categories_segments":[],"categories_sizes":[],"default_left":[0,0,0,0,0,0,0,0,0,0,0,0,0,0,0,0,0,0,0,0,0,0,0,0,0,0,0,0,0,0,0],"id":18,"left_children":[1,3,5,7,9,11,13,15,17,19,21,23,25,27,29,-1,-1,-1,-1,-1,-1,-1,-1,-1,-1,-1,-1,-1,-1,-1,-1],"loss_changes":[4.4933987E1,2.8342089E1,2.979343E1,1.301092E1,4.305195E0,9.564423E0,1.4497773E1,6.3746343E0,7.207799E0,1.023455E1,7.839203E-2,4.2676544E-1,1.5812738E1,6.087324E0,2.8590217E0,0E0,0E0,0E0,0E0,0E0,0E0,0E0,0E0,0E0,0E0,0E0,0E0,0E0,0E0,0E0,0E0],"parents":[2147483647,0,0,1,1,2,2,3,3,4,4,5,5,6,6,7,7,8,8,9,9,10,10,11,11,12,12,13,13,14,14],"right_children":[2,4,6,8,10,12,14,16,18,20,22,24,26,28,30,-1,-1,-1,-1,-1,-1,-1,-1,-1,-1,-1,-1,-1,-1,-1,-1],"split_conditions":[1.8074762E1,6.20582E4,1.16286266E5,7.68065E0,6.8E2,7.23E2,3.3422867E1,6.68E2,8.31E2,8.8906805E4,3.4516712E-4,1.0492633E3,2.8179745E1,7.31E2,7.77E2,-3.125533E-2,7.742515E-2,-7.692842E-2,7.983116E-2,-2.0676412E-2,1.0662174E-1,1.11718275E-1,3.0099405E-2,-1.1168504E-1,-2.1269048E-2,8.5448045E-3,-1.0865153E-1,2.5523726E-2,1.1775374E-1,-9.65228E-2,4.3221875E-4],"split_indices":[5,4,4,5,6,6,5,6,6,4,12,11,5,6,6,0,0,0,0,0,0,0,0,0,0,0,0,0,0,0,0],"split_type":[0,0,0,0,0,0,0,0,0,0,0,0,0,0,0,0,0,0,0,0,0,0,0,0,0,0,0,0,0,0,0],"sum_hessian":[2.387771E2,1.11875374E2,1.26901726E2,4.8529057E1,6.3346317E1,8.526122E1,4.1640503E1,2.2820812E1,2.5708244E1,2.436472E1,3.8981598E1,3.9505337E1,4.5755886E1,2.9590523E1,1.204998E1,7.359323E0,1.546149E1,2.3191402E1,2.516843E0,1.0496113E1,1.38686075E1,3.798036E1,1.001239E0,3.84405E1,1.06484E0,2.6681395E1,1.907449E1,1.762747E1,1.1963054E1,7.2449365E0,4.8050437E0],"tree_param":{"num_deleted":"0","num_feature":"15","num_nodes":"31","size_leaf_vector":"1"}},{"base_weights":[9.051257E-4,3.1430864E-1,-5.577211E-1,-2.1893382E-1,7.327324E-1,-8.486299E-1,2.5392553E-1,2.4743167E-1,-7.975624E-1,2.915008E-1,1.0090939E0,-1.0569735E-1,-4.7619092E-1,7.616095E-1,-3.1806E-1,-3.0191958E-2,7.371823E-2,-9.621566E-2,1.7742723E-2,1.04477644E-1,-2.5739608E-2,7.361921E-2,1.1524941E-1,-9.359538E-2,2.7513688E-2,2.0041808E-2,1.0529158E-1,-1.0392534E-1,3.1386595E-2],"categories":[],"categories_nodes":[],"categories_segments":[],"categories_sizes":[],"default_left":[0,0,0,0,0,0,0,0,0,0,0,0,0,0,0,0,0,0,0,0,0,0,0,0,0,0,0,0,0],"id":19,"left_children":[1,3,5,7,9,11,13,15,17,19,21,-1,23,25,27,-1,-1,-1,-1,-1,-1,-1,-1,-1,-1,-1,-1,-1,-1],"loss_changes":[4.02485E1,3.3019104E1,1.9723993E1,1.78781E1,9.796108E0,4.2341156E0,6.7962046E0,1.0188716E1,4.9011784E0,1.4026918E1,1.1267929E0,0E0,8.451679E0,1.7918396E0,5.4843373E0,0E0,0E0,0E0,0E0,0E0,0E0,0E0,0E0,0E0,0E0,0E0,0E0,0E0,0E0],"parents":[2147483647,0,0,1,1,2,2,3,3,4,4,5,5,6,6,7,7,8,8,9,9,10,10,12,12,13,13,14,14],"right_children":[2,4,6,8,10,12,14,16,18,20,22,-1,24,26,28,-1,-1,-1,-1,-1,-1,-1,-1,-1,-1,-1,-1,-1,-1],"split_conditions":[2.3748232E1,6.816389E4,1.27843555E5,1.0813944E1,6.83E2,9.970511E4,3.2170444E1,7.03E2,8.27E2,1.4289679E1,7.45E2,-1.0569735E-1,7.65E2,6.66E2,7.48E2,-3.0191958E-2,7.371823E-2,-9.621566E-2,1.7742723E-2,1.04477644E-1,-2.5739608E-2,7.361921E-2,1.1524941E-1,-9.359538E-2,2.7513688E-2,2.0041808E-2,1.0529158E-1,-1.0392534E-1,3.1386595E-2],"split_indices":[5,4,4,5,6,4,5,6,6,5,6,0,6,6,6,0,0,0,0,0,0,0,0,0,0,0,0,0,0],"split_type":[0,0,0,0,0,0,0,0,0,0,0,0,0,0,0,0,0,0,0,0,0,0,0,0,0,0,0,0,0],"sum_hessian":[2.278911E2,1.4626825E2,8.162285E1,6.45201E1,8.1748146E1,6.0053154E1,2.1569696E1,3.6042667E1,2.8477434E1,3.2274426E1,4.9473724E1,3.7331696E1,2.2721457E1,1.1251528E1,1.031817E1,1.716843E1,1.8874235E1,2.4375599E1,4.1018367E0,1.3223634E1,1.9050793E1,1.9154688E1,3.0319035E1,1.394333E1,8.778127E0,4.421555E0,6.8299723E0,4.5177035E0,5.8004665E0],"tree_param":{"num_deleted":"0","num_feature":"15","num_nodes":"29","size_leaf_vector":"1"}},{"base_weights":[1.3002836E-3,2.598055E-1,-6.20517E-1,-1.2327934E-2,1.0029036E0,-8.440099E-1,4.168053E-1,-4.1195813E-1,4.504837E-1,1.9441101E-1,1.0670052E-1,-9.966268E-1,-3.3422372E-1,8.1363934E-1,-7.626569E-2,4.130797E-2,-7.650049E-2,8.7384686E-2,-1.2930544E-2,7.032747E-2,-3.7412018E-2,-1.0516286E-1,-5.2310575E-2,3.239124E-2,-9.6728005E-2,-1.6576527E-2,9.913636E-2],"categories":[],"categories_nodes":[],"categories_segments":[],"categories_sizes":[],"default_left":[0,0,0,0,0,0,0,0,0,0,0,0,0,0,0,0,0,0,0,0,0,0,0,0,0,0,0],"id":20,"left_children":[1,3,5,7,9,11,13,15,17,19,-1,21,23,25,-1,-1,-1,-1,-1,-1,-1,-1,-1,-1,-1,-1,-1],"loss_changes":[3.5311592E1,3.1390293E1,1.5307056E1,2.1374119E1,1.9487381E0,3.8218575E0,6.285921E0,1.8374992E1,1.326041E1,1.5010732E0,0E0,5.0717545E-1,6.0665917E0,1.8250432E0,0E0,0E0,0E0,0E0,0E0,0E0,0E0,0E0,0E0,0E0,0E0,0E0,0E0],"parents":[2147483647,0,0,1,1,2,2,3,3,4,4,5,5,6,6,7,7,8,8,9,9,11,11,12,12,13,13],"right_children":[2,4,6,8,10,12,14,16,18,20,-1,22,24,26,-1,-1,-1,-1,-1,-1,-1,-1,-1,-1,-1,-1,-1],"split_conditions":[2.6197643E1,1.03747695E5,1.3645605E5,7.22E2,6.11E2,8.01E2,3.6804554E1,7.0564766E0,1.43410815E-2,1.873845E1,1.0670052E-1,1.27843555E5,8.0115935E-3,6.33E2,-7.626569E-2,4.130797E-2,-7.650049E-2,8.7384686E-2,-1.2930544E-2,7.032747E-2,-3.7412018E-2,-1.0516286E-1,-5.2310575E-2,3.239124E-2,-9.6728005E-2,-1.6576527E-2,9.913636E-2],"split_indices":[5,4,4,6,6,6,5,5,10,5,0,4,10,6,0,0,0,0,0,0,0,0,0,0,0,0,0],"split_type":[0,0,0,0,0,0,0,0,0,0,0,0,0,0,0,0,0,0,0,0,0,0,0,0,0,0,0],"sum_hessian":[2.1767438E2,1.541659E2,6.3508484E1,1.1356143E2,4.0604458E1,5.2404255E1,1.1104229E1,6.0999367E1,5.2562065E1,3.2790985E0,3.732536E1,3.9595413E1,1.2808844E1,8.540806E0,2.5634224E0,1.8229248E1,4.277012E1,3.008602E1,2.2476048E1,1.6052854E0,1.6738131E0,3.438102E1,5.214392E0,6.519449E0,6.2893944E0,1.3221233E0,7.218683E0],"tree_param":{"num_deleted":"0","num_feature":"15","num_nodes":"27","size_leaf_vector":"1"}},{"base_weights":[1.1450688E-3,5.4228604E-1,-2.8068024E-1,-3.500554E-1,8.4802455E-1,-7.6938725E-1,1.375307E-1,-6.7762446E-1,4.2647448E-1,5.28632E-1,1.0793567E0,-9.9950844E-1,-2.637462E-1,5.214809E-1,-5.5250156E-1,2.055782E-2,-1.0051351E-1,8.064644E-2,-7.720979E-2,9.851547E-2,-2.0649215E-2,2.3796987E-2,1.114401E-1,-1.1515222E-1,-7.998896E-2,5.0601304E-2,-9.149374E-2,1.759576E-2,9.919373E-2,-7.280556E-2,5.006943E-2],"categories":[],"categories_nodes":[],"categories_segments":[],"categories_sizes":[],"default_left":[0,0,0,0,0,0,0,0,0,0,0,0,0,0,0,0,0,0,0,0,0,0,0,0,0,0,0,0,0,0,0],"id":21,"left_children":[1,3,5,7,9,11,13,15,17,19,21,23,25,27,29,-1,-1,-1,-1,-1,-1,-1,-1,-1,-1,-1,-1,-1,-1,-1,-1],"loss_changes":[3.221027E1,2.0029207E1,2.8490532E1,5.1638985E0,3.4311943E0,7.2059326E0,2.034027E1,4.217259E0,3.4918165E0,8.496296E0,6.32679E-1,4.0673447E-1,1.1208081E1,7.8137875E0,5.457123E0,0E0,0E0,0E0,0E0,0E0,0E0,0E0,0E0,0E0,0E0,0E0,0E0,0E0,0E0,0E0,0E0],"parents":[2147483647,0,0,1,1,2,2,3,3,4,4,5,5,6,6,7,7,8,8,9,9,10,10,11,11,12,12,13,13,14,14],"right_children":[2,4,6,8,10,12,14,16,18,20,22,24,26,28,30,-1,-1,-1,-1,-1,-1,-1,-1,-1,-1,-1,-1,-1,-1,-1,-1],"split_conditions":[1.3699009E1,3.856586E4,8.8906805E4,7.73E2,6.99E2,7.82E2,3.0544418E1,3.147907E0,9.83999E0,1.0409668E-2,2.6837756E3,6.94E2,1.2443021E-2,7.2E2,1.4318347E5,2.055782E-2,-1.0051351E-1,8.064644E-2,-7.720979E-2,9.851547E-2,-2.0649215E-2,2.3796987E-2,1.114401E-1,-1.1515222E-1,-7.998896E-2,5.0601304E-2,-9.149374E-2,1.759576E-2,9.919373E-2,-7.280556E-2,5.006943E-2],"split_indices":[5,4,4,6,6,6,5,5,5,10,0,6,10,6,4,0,0,0,0,0,0,0,0,0,0,0,0,0,0,0,0],"split_type":[0,0,0,0,0,0,0,0,0,0,0,0,0,0,0,0,0,0,0,0,0,0,0,0,0,0,0,0,0,0,0],"sum_hessian":[2.0920683E2,7.132652E1,1.3788031E2,1.8164854E1,5.3161667E1,6.319412E1,7.4686195E1,1.2865204E1,5.29965E0,2.3710512E1,2.9451155E1,4.2757935E1,2.0436186E1,4.814272E1,2.6543478E1,3.580884E0,9.28432E0,4.2723193E0,1.0273309E0,1.4417139E1,9.293372E0,1.4891183E0,2.7962036E1,2.1566225E1,2.119171E1,9.467636E0,1.0968549E1,2.8549074E1,1.9593647E1,2.3015766E1,3.5277112E0],"tree_param":{"num_deleted":"0","num_feature":"15","num_nodes":"31","size_leaf_vector":"1"}},{"base_weights":[1.1055914E-3,4.0747687E-1,-3.5668394E-1,-9.288335E-2,8.3603466E-1,-8.143474E-1,9.4060734E-2,3.609107E-1,-5.1260984E-1,3.3629724E-1,9.90054E-1,-1.0221148E0,-3.6791372E-1,3.857484E-1,-7.1722716E-1,6.85833E-2,-3.8638704E-2,-9.742345E-2,9.1387297E-4,-4.6732444E-2,9.821907E-2,1.0233074E-1,3.511274E-2,-1.0495391E-1,-1.8063433E-2,2.9399607E-2,-9.9523835E-2,-1.6239138E-2,9.068052E-2,-9.1046214E-2,2.797901E-2],"categories":[],"categories_nodes":[],"categories_segments":[],"categories_sizes":[],"default_left":[0,0,0,0,0,0,0,0,0,0,0,0,0,0,0,0,0,0,0,0,0,0,0,0,0,0,0,0,0,0,0],"id":22,"left_children":[1,3,5,7,9,11,13,15,17,19,21,23,25,27,29,-1,-1,-1,-1,-1,-1,-1,-1,-1,-1,-1,-1,-1,-1,-1,-1],"loss_changes":[2.9400148E1,2.0379154E1,2.2259615E1,8.675852E0,3.5999107E0,4.582672E0,1.3309223E1,5.60855E0,5.6861978E0,7.4933863E0,4.596176E-1,6.3933945E-1,7.991404E0,1.1902678E1,3.128048E0,0E0,0E0,0E0,0E0,0E0,0E0,0E0,0E0,0E0,0E0,0E0,0E0,0E0,0E0,0E0,0E0],"parents":[2147483647,0,0,1,1,2,2,3,3,4,4,5,5,6,6,7,7,8,8,9,9,10,10,11,11,12,12,13,13,14,14],"right_children":[2,4,6,8,10,12,14,16,18,20,22,24,26,28,30,-1,-1,-1,-1,-1,-1,-1,-1,-1,-1,-1,-1,-1,-1,-1,-1],"split_conditions":[1.8074762E1,6.20582E4,9.887311E4,7.68065E0,6.48E2,7.82E2,3.359993E1,5.016225E-4,7.33E2,8.8906805E4,4.6134552E-1,3.9118152E-2,2.4777803E1,6.99E2,1.4268962E5,6.85833E-2,-3.8638704E-2,-9.742345E-2,9.1387297E-4,-4.6732444E-2,9.821907E-2,1.0233074E-1,3.511274E-2,-1.0495391E-1,-1.8063433E-2,2.9399607E-2,-9.9523835E-2,-1.6239138E-2,9.068052E-2,-9.1046214E-2,2.797901E-2],"split_indices":[5,4,4,5,6,6,5,12,6,4,7,13,5,6,4,0,0,0,0,0,0,0,0,0,0,0,0,0,0,0,0],"split_type":[0,0,0,0,0,0,0,0,0,0,0,0,0,0,0,0,0,0,0,0,0,0,0,0,0,0,0,0,0,0,0],"sum_hessian":[2.0020862E2,9.3675125E1,1.0653349E2,4.3578526E1,5.00966E1,5.2460785E1,5.4072712E1,2.1006807E1,2.2571718E1,1.2552319E1,3.754428E1,3.4919815E1,1.7540968E1,4.015871E1,1.39140005E1,1.4698294E1,6.3085136E0,1.1515747E1,1.1055972E1,5.7164145E0,6.835904E0,3.5115093E1,2.4291897E0,3.3578228E1,1.3415871E0,8.793754E0,8.747214E0,1.9906195E1,2.0252518E1,1.1727812E1,2.1861885E0],"tree_param":{"num_deleted":"0","num_feature":"15","num_nodes":"31","size_leaf_vector":"1"}},{"base_weights":[6.657776E-4,3.284193E-1,-4.0187892E-1,-1.7398644E-2,8.9788353E-1,-7.2732645E-1,2.4420026E-1,-3.6255676E-1,4.8434538E-1,3.1497416E-1,9.909231E-1,-9.6953636E-1,-2.7251938E-1,7.994183E-1,-2.4593647E-1,3.819349E-2,-7.967854E-2,6.652286E-2,-4.881492E-2,-4.2050764E-2,8.725061E-2,2.4667617E-2,1.0062875E-1,-1.083222E-1,-6.339546E-2,-9.832742E-2,2.2837719E-2,2.7554143E-2,1.0831994E-1,-9.742587E-2,2.761556E-2],"categories":[],"categories_nodes":[],"categories_segments":[],"categories_sizes":[],"default_left":[0,0,0,0,0,0,0,0,0,0,0,0,0,0,0,0,0,0,0,0,0,0,0,0,0,0,0,0,0,0,0],"id":23,"left_children":[1,3,5,7,9,11,13,15,17,19,21,23,25,27,29,-1,-1,-1,-1,-1,-1,-1,-1,-1,-1,-1,-1,-1,-1,-1,-1],"loss_changes":[2.5556753E1,2.1042147E1,1.8457005E1,1.1849927E1,1.876751E0,6.1320877E0,8.325388E0,1.3400169E1,5.232868E0,3.2459846E0,1.4443207E-1,7.4380493E-1,7.9031086E0,1.818655E0,6.592586E0,0E0,0E0,0E0,0E0,0E0,0E0,0E0,0E0,0E0,0E0,0E0,0E0,0E0,0E0,0E0,0E0],"parents":[2147483647,0,0,1,1,2,2,3,3,4,4,5,5,6,6,7,7,8,8,9,9,10,10,11,11,12,12,13,13,14,14],"right_children":[2,4,6,8,10,12,14,16,18,20,22,24,26,28,30,-1,-1,-1,-1,-1,-1,-1,-1,-1,-1,-1,-1,-1,-1,-1,-1],"split_conditions":[2.066186E1,8.097324E4,1.1961953E5,7.49E2,6.22E2,7.73E2,3.0544418E1,5.3029633E0,2.7197463E-2,9.752505E4,1.9572703E-2,7.23E2,7.754513E4,1.3057542E5,7.31E2,3.819349E-2,-7.967854E-2,6.652286E-2,-4.881492E-2,-4.2050764E-2,8.725061E-2,2.4667617E-2,1.0062875E-1,-1.083222E-1,-6.339546E-2,-9.832742E-2,2.2837719E-2,2.7554143E-2,1.0831994E-1,-9.742587E-2,2.761556E-2],"split_indices":[5,4,4,6,6,6,5,5,10,4,13,6,4,4,6,0,0,0,0,0,0,0,0,0,0,0,0,0,0,0,0],"split_type":[0,0,0,0,0,0,0,0,0,0,0,0,0,0,0,0,0,0,0,0,0,0,0,0,0,0,0,0,0,0,0],"sum_hessian":[1.9170613E2,1.0577105E2,8.593508E1,6.64111E1,3.935995E1,5.706443E1,2.887065E1,3.9509357E1,2.6901741E1,6.021234E0,3.333872E1,3.6496353E1,2.0568079E1,1.3240753E1,1.5629897E1,1.4599213E1,2.4910145E1,2.2949171E1,3.9525704E0,2.7022562E0,3.3189778E0,1.0192925E0,3.2319424E1,2.5596933E1,1.0899419E1,8.104727E0,1.2463353E1,5.3448353E0,7.8959184E0,6.1644197E0,9.465477E0],"tree_param":{"num_deleted":"0","num_feature":"15","num_nodes":"31","size_leaf_vector":"1"}},{"base_weights":[4.1472347E-4,4.929276E-1,-2.530899E-1,-3.387768E-1,8.0813754E-1,-9.980251E-1,-2.239227E-3,-1.045359E0,2.6833368E-2,4.9574745E-1,1.044595E0,-1.808775E-2,-1.0434543E0,3.730739E-1,-4.040007E-1,-1.1541921E-1,-2.5352865E-2,1.04030214E-1,-4.2809974E-2,-2.5029395E-2,8.8000014E-2,2.10466E-2,1.08155206E-1,-1.0706543E-1,-3.208143E-2,-9.977914E-3,9.629983E-2,-6.5693215E-2,4.1318577E-2],"categories":[],"categories_nodes":[],"categories_segments":[],"categories_sizes":[],"default_left":[0,0,0,0,0,0,0,0,0,0,0,0,0,0,0,0,0,0,0,0,0,0,0,0,0,0,0,0,0],"id":24,"left_children":[1,3,5,7,9,11,13,15,17,19,21,-1,23,25,27,-1,-1,-1,-1,-1,-1,-1,-1,-1,-1,-1,-1,-1,-1],"loss_changes":[2.3253447E1,1.6865356E1,2.297459E1,4.703411E0,2.89402E0,9.6102524E-1,1.4171668E1,2.4136686E-1,6.393853E0,6.470446E0,5.5496216E-1,0E0,2.2912407E-1,1.3651563E1,9.653281E0,0E0,0E0,0E0,0E0,0E0,0E0,0E0,0E0,0E0,0E0,0E0,0E0,0E0,0E0],"parents":[2147483647,0,0,1,1,2,2,3,3,4,4,5,5,6,6,7,7,8,8,9,9,10,10,12,12,13,13,14,14],"right_children":[2,4,6,8,10,12,14,16,18,20,22,-1,24,26,28,-1,-1,-1,-1,-1,-1,-1,-1,-1,-1,-1,-1,-1,-1],"split_conditions":[1.3699009E1,3.856586E4,6.663652E4,6.78E2,6.99E2,1.3683857E-4,2.5742085E1,3.4370613E4,4.2452006E0,5.9485555E4,2.6837756E3,-1.808775E-2,8.41E2,7.2E2,1.3645605E5,-1.1541921E-1,-2.5352865E-2,1.04030214E-1,-4.2809974E-2,-2.5029395E-2,8.8000014E-2,2.10466E-2,1.08155206E-1,-1.0706543E-1,-3.208143E-2,-9.977914E-3,9.629983E-2,-6.5693215E-2,4.1318577E-2],"split_indices":[5,4,4,6,6,12,5,4,5,4,0,0,6,6,4,0,0,0,0,0,0,0,0,0,0,0,0,0,0],"split_type":[0,0,0,0,0,0,0,0,0,0,0,0,0,0,0,0,0,0,0,0,0,0,0,0,0,0,0,0,0],"sum_hessian":[1.8424547E2,6.2287624E1,1.2195785E2,1.7098146E1,4.5189476E1,2.9972342E1,9.1985504E1,5.196369E0,1.1901778E1,2.080285E1,2.4386625E1,1.8409069E0,2.8131435E1,4.759507E1,4.4390438E1,4.16613E0,1.0302391E0,3.2887073E0,8.6130705E0,7.190615E0,1.3612235E1,1.3186771E0,2.306795E1,2.6646866E1,1.4845685E0,2.6880169E1,2.0714901E1,3.4048138E1,1.0342301E1],"tree_param":{"num_deleted":"0","num_feature":"15","num_nodes":"29","size_leaf_vector":"1"}},{"base_weights":[5.8403314E-4,4.7021806E-1,-2.3777415E-1,-1.5729941E-1,8.666073E-1,-6.9590634E-1,1.466041E-1,-7.078107E-1,3.1867453E-1,9.215636E-1,-8.73337E-3,-9.248745E-1,-2.290393E-1,6.177228E-1,-2.9960838E-1,1.483229E-2,-1.06125556E-1,-4.663897E-2,7.9490565E-2,1.0601065E-1,6.93084E-2,-1.0103575E-1,-5.1889855E-2,-9.364479E-2,3.6591616E-2,-2.0260988E-3,8.359021E-2,-7.501639E-2,1.4871949E-2],"categories":[],"categories_nodes":[],"categories_segments":[],"categories_sizes":[],"default_left":[0,0,0,0,0,0,0,0,0,0,0,0,0,0,0,0,0,0,0,0,0,0,0,0,0,0,0,0,0],"id":25,"left_children":[1,3,5,7,9,11,13,15,17,19,-1,21,23,25,27,-1,-1,-1,-1,-1,-1,-1,-1,-1,-1,-1,-1,-1,-1],"loss_changes":[2.0024448E1,1.5116506E1,2.0997757E1,6.556481E0,2.023508E0,5.593851E0,1.3922958E1,3.641439E0,5.473092E0,3.772869E-1,0E0,7.289028E-1,8.423646E0,4.4871254E0,7.0270615E0,0E0,0E0,0E0,0E0,0E0,0E0,0E0,0E0,0E0,0E0,0E0,0E0,0E0,0E0],"parents":[2147483647,0,0,1,1,2,2,3,3,4,4,5,5,6,6,7,7,8,8,9,9,11,11,12,12,13,13,14,14],"right_children":[2,4,6,8,10,12,14,16,18,20,-1,22,24,26,28,-1,-1,-1,-1,-1,-1,-1,-1,-1,-1,-1,-1,-1,-1],"split_conditions":[1.3699009E1,4.775987E4,9.104193E4,7.03E2,5.9639347E-1,7.82E2,2.6694046E1,3.147907E0,3.0823496E4,8.141421E0,-8.73337E-3,8.097324E4,6.2819305E4,6.42E2,7.47E2,1.483229E-2,-1.06125556E-1,-4.663897E-2,7.9490565E-2,1.0601065E-1,6.93084E-2,-1.0103575E-1,-5.1889855E-2,-9.364479E-2,3.6591616E-2,-2.0260988E-3,8.359021E-2,-7.501639E-2,1.4871949E-2],"split_indices":[5,4,4,6,7,6,5,5,4,5,0,4,4,6,6,0,0,0,0,0,0,0,0,0,0,0,0,0,0],"split_type":[0,0,0,0,0,0,0,0,0,0,0,0,0,0,0,0,0,0,0,0,0,0,0,0,0,0,0,0,0],"sum_hessian":[1.76885E2,5.9223995E1,1.17661E2,2.3161137E1,3.6062855E1,5.3310677E1,6.435033E1,1.0513801E1,1.2647337E1,3.4130543E1,1.9323124E0,3.5110313E1,1.8200363E1,3.1114614E1,3.323571E1,3.2417667E0,7.272034E0,4.7830954E0,7.864241E0,1.8981148E1,1.5149395E1,2.777355E1,7.336765E0,8.052213E0,1.014815E1,8.160223E0,2.2954393E1,1.6240881E1,1.6994827E1],"tree_param":{"num_deleted":"0","num_feature":"15","num_nodes":"29","size_leaf_vector":"1"}},{"base_weights":[2.5040184E-5,3.477735E-1,-3.0048847E-1,-8.587635E-2,7.685206E-1,-6.291727E-1,2.6847413E-1,6.0000294E-1,-3.1136322E-1,3.9651564E-1,1.01860575E-1,-1.00894056E-1,-3.595059E-1,5.734395E-1,-5.132856E-1,9.104919E-2,-2.7336055E-2,-7.515823E-2,1.987399E-2,-2.3272416E-2,9.814216E-2,2.5758992E-3,-1.01438664E-1,-3.199238E-2,7.4615136E-2,-7.453524E-2,2.5448507E-2],"categories":[],"categories_nodes":[],"categories_segments":[],"categories_sizes":[],"default_left":[0,0,0,0,0,0,0,0,0,0,0,0,0,0,0,0,0,0,0,0,0,0,0,0,0,0,0],"id":26,"left_children":[1,3,5,7,9,11,13,15,17,19,-1,-1,21,23,25,-1,-1,-1,-1,-1,-1,-1,-1,-1,-1,-1,-1],"loss_changes":[1.798431E1,1.462187E1,1.743294E1,6.4017982E0,3.3724422E0,5.660345E0,8.520358E0,3.037663E0,7.088499E0,6.836836E0,0E0,0E0,9.095231E0,4.1413336E0,2.0089068E0,0E0,0E0,0E0,0E0,0E0,0E0,0E0,0E0,0E0,0E0,0E0,0E0],"parents":[2147483647,0,0,1,1,2,2,3,3,4,4,5,5,6,6,7,7,8,8,9,9,12,12,13,13,14,14],"right_children":[2,4,6,8,10,12,14,16,18,20,-1,-1,22,24,26,-1,-1,-1,-1,-1,-1,-1,-1,-1,-1,-1,-1],"split_conditions":[1.8074762E1,6.20582E4,1.16286266E5,4.12587E0,6.8E2,7.13E2,3.359993E1,5.3525635E-4,7.33E2,8.8906805E4,1.01860575E-1,-1.00894056E-1,2.8179745E1,7.377431E3,1.4268962E5,9.104919E-2,-2.7336055E-2,-7.515823E-2,1.987399E-2,-2.3272416E-2,9.814216E-2,2.5758992E-3,-1.01438664E-1,-3.199238E-2,7.4615136E-2,-7.453524E-2,2.5448507E-2],"split_indices":[5,4,4,5,6,6,5,12,6,4,0,0,5,0,4,0,0,0,0,0,0,0,0,0,0,0,0],"split_type":[0,0,0,0,0,0,0,0,0,0,0,0,0,0,0,0,0,0,0,0,0,0,0,0,0,0,0],"sum_hessian":[1.7009357E2,7.877703E1,9.131653E1,3.9185627E1,3.9591404E1,5.7812805E1,3.3503727E1,9.2842245E0,2.9901403E1,1.6955454E1,2.263595E1,2.2867458E1,3.4945347E1,2.4293343E1,9.210383E0,6.8178887E0,2.4663355E0,1.5796032E1,1.41053705E1,8.458233E0,8.497221E0,2.2606598E1,1.2338746E1,3.7976098E0,2.0495733E1,7.0950336E0,2.1153493E0],"tree_param":{"num_deleted":"0","num_feature":"15","num_nodes":"27","size_leaf_vector":"1"}},{"base_weights":[-1.8151048E-5,2.2099598E-1,-4.388019E-1,6.8169544E-3,9.9547915E-2,-7.740944E-1,1.5519527E-1,-3.7702838E-1,3.474314E-1,-9.3370986E-1,-3.171365E-1,3.873284E-1,-8.3910835E-1,2.0416522E-2,-7.328819E-2,7.2897E-2,-1.125489E-2,3.8314194E-3,-9.75764E-2,2.8632406E-2,-7.9696134E-2,-2.3000574E-2,8.787073E-2,-2.5774179E-2,-9.470625E-2],"categories":[],"categories_nodes":[],"categories_segments":[],"categories_sizes":[],"default_left":[0,0,0,0,0,0,0,0,0,0,0,0,0,0,0,0,0,0,0,0,0,0,0,0,0],"id":27,"left_children":[1,3,5,7,-1,9,11,13,15,17,19,21,23,-1,-1,-1,-1,-1,-1,-1,-1,-1,-1,-1,-1],"loss_changes":[1.607943E1,1.8283848E1,1.1181715E1,1.1555999E1,0E0,2.3054314E0,5.142553E0,8.746056E0,8.2990055E0,1.0969486E0,3.3403144E0,5.542755E0,2.3665667E-2,0E0,0E0,0E0,0E0,0E0,0E0,0E0,0E0,0E0,0E0,0E0,0E0],"parents":[2147483647,0,0,1,1,2,2,3,3,5,5,6,6,7,7,8,8,9,9,10,10,11,11,12,12],"right_children":[2,4,6,8,-1,10,12,14,16,18,20,22,24,-1,-1,-1,-1,-1,-1,-1,-1,-1,-1,-1,-1],"split_conditions":[2.4466227E1,1.03747695E5,1.2401788E5,7.07E2,9.9547915E-2,8.01E2,3.6804554E1,8.42114E0,1.418051E-2,5.4186826E0,8.1628105E-3,6.96E2,1.3402136E4,2.0416522E-2,-7.328819E-2,7.2897E-2,-1.125489E-2,3.8314194E-3,-9.75764E-2,2.8632406E-2,-7.9696134E-2,-2.3000574E-2,8.787073E-2,-2.5774179E-2,-9.470625E-2],"split_indices":[5,4,4,6,0,6,5,5,10,2,10,6,0,0,0,0,0,0,0,0,0,0,0,0,0],"split_type":[0,0,0,0,0,0,0,0,0,0,0,0,0,0,0,0,0,0,0,0,0,0,0,0,0],"sum_hessian":[1.6380595E2,1.0926556E2,5.45404E1,8.638505E1,2.2880505E1,3.4668144E1,1.9872257E1,4.056482E1,4.582023E1,2.4920198E1,9.747947E0,1.6605856E1,3.2664008E0,1.5566796E1,2.4998024E1,2.4726019E1,2.1094208E1,1.0371385E0,2.3883059E1,4.496329E0,5.2516174E0,7.5954194E0,9.010437E0,1.0420659E0,2.2243352E0],"tree_param":{"num_deleted":"0","num_feature":"15","num_nodes":"25","size_leaf_vector":"1"}},{"base_weights":[-5.4363796E-4,4.2914343E-1,-2.1898648E-1,-3.6383435E-1,7.218068E-1,-9.600617E-1,2.0334579E-3,-1.1080165E-1,4.183366E-3,4.015422E-1,9.926214E-1,-1.3477879E-2,-1.0123118E0,1.7269318E-1,-7.1807957E-1,9.8416105E-2,-4.7668196E-2,-9.188942E-3,9.620621E-2,1.3071272E-2,1.0359694E-1,-1.0458548E-1,-2.6886126E-2,-2.3692235E-2,6.9138885E-2,-9.849527E-2,-1.6965263E-3],"categories":[],"categories_nodes":[],"categories_segments":[],"categories_sizes":[],"default_left":[0,0,0,0,0,0,0,0,0,0,0,0,0,0,0,0,0,0,0,0,0,0,0,0,0,0,0],"id":28,"left_children":[1,3,5,7,9,11,13,-1,15,17,19,-1,21,23,25,-1,-1,-1,-1,-1,-1,-1,-1,-1,-1,-1,-1],"loss_changes":[1.5055184E1,1.2808595E1,1.7418947E1,4.1779394E0,3.055252E0,9.170265E-1,1.0312607E1,0E0,5.743316E0,5.5990744E0,6.453495E-1,0E0,2.8793907E-1,1.4574937E1,2.9915094E0,0E0,0E0,0E0,0E0,0E0,0E0,0E0,0E0,0E0,0E0,0E0,0E0],"parents":[2147483647,0,0,1,1,2,2,3,3,4,4,5,5,6,6,8,8,9,9,10,10,12,12,13,13,14,14],"right_children":[2,4,6,8,10,12,14,-1,16,18,20,-1,22,24,26,-1,-1,-1,-1,-1,-1,-1,-1,-1,-1,-1,-1],"split_conditions":[1.3699009E1,3.639432E4,6.663652E4,6.78E2,6.99E2,1.3683857E-4,3.359993E1,-1.1080165E-1,4.2452006E0,6.816389E4,2.6837756E3,-1.3477879E-2,8.41E2,7.27E2,1.352574E5,9.8416105E-2,-4.7668196E-2,-9.188942E-3,9.620621E-2,1.3071272E-2,1.0359694E-1,-1.0458548E-1,-2.6886126E-2,-2.3692235E-2,6.9138885E-2,-9.849527E-2,-1.6965263E-3],"split_indices":[5,4,4,6,6,12,5,0,5,4,0,0,6,6,4,0,0,0,0,0,0,0,0,0,0,0,0],"split_type":[0,0,0,0,0,0,0,0,0,0,0,0,0,0,0,0,0,0,0,0,0,0,0,0,0,0,0],"sum_hessian":[1.5839568E2,5.3059887E1,1.05335785E2,1.4238143E1,3.8821743E1,2.3430391E1,8.1905396E1,4.0459366E0,1.0192207E1,1.8924456E1,1.9897287E1,1.6082222E0,2.1822168E1,6.6828E1,1.50773945E1,3.010442E0,7.1817646E0,1.0509179E1,8.415277E0,1.1450521E0,1.8752235E1,2.0490902E1,1.3312669E0,3.7643806E1,2.9184193E1,1.0627347E1,4.4500475E0],"tree_param":{"num_deleted":"0","num_feature":"15","num_nodes":"27","size_leaf_vector":"1"}},{"base_weights":[-9.571831E-4,3.133171E-1,-2.7157295E-1,-1.4803578E-1,6.5562904E-1,-7.2861207E-1,1.0734975E-1,2.3709309E-1,-5.853986E-1,8.017011E-1,-6.646827E-2,-9.5075804E-1,-3.1347677E-1,4.3535385E-1,-4.358874E-1,-6.9698066E-2,4.486419E-2,-7.9572156E-2,4.5091942E-2,4.4954143E-2,1.0151582E-1,5.6834865E-2,-7.179003E-2,-9.83427E-2,-1.3943696E-2,2.330958E-2,-9.3339466E-2,-1.2218067E-2,8.239546E-2,-9.582531E-2,-6.604126E-3],"categories":[],"categories_nodes":[],"categories_segments":[],"categories_sizes":[],"default_left":[0,0,0,0,0,0,0,0,0,0,0,0,0,0,0,0,0,0,0,0,0,0,0,0,0,0,0,0,0,0,0],"id":29,"left_children":[1,3,5,7,9,11,13,15,17,19,21,23,25,27,29,-1,-1,-1,-1,-1,-1,-1,-1,-1,-1,-1,-1,-1,-1,-1,-1],"loss_changes":[1.3173414E1,1.1415303E1,1.4491573E1,5.418052E0,4.4122715E0,3.1927948E0,8.452751E0,3.7466033E0,3.6203775E0,2.1332283E0,3.6653254E0,5.034008E-1,5.1939225E0,6.473686E0,3.4061651E0,0E0,0E0,0E0,0E0,0E0,0E0,0E0,0E0,0E0,0E0,0E0,0E0,0E0,0E0,0E0,0E0],"parents":[2147483647,0,0,1,1,2,2,3,3,4,4,5,5,6,6,7,7,8,8,9,9,10,10,11,11,12,12,13,13,14,14],"right_children":[2,4,6,8,10,12,14,16,18,20,22,24,26,28,30,-1,-1,-1,-1,-1,-1,-1,-1,-1,-1,-1,-1,-1,-1,-1,-1],"split_conditions":[1.8074762E1,5.4877336E4,9.887311E4,7.574435E0,1.2120917E-2,7.82E2,3.1493954E1,6.29E2,8.3E2,6.78E2,1.2073386E1,3.8881097E-2,2.4777803E1,6.66E2,7.48E2,-6.9698066E-2,4.486419E-2,-7.9572156E-2,4.5091942E-2,4.4954143E-2,1.0151582E-1,5.6834865E-2,-7.179003E-2,-9.83427E-2,-1.3943696E-2,2.330958E-2,-9.3339466E-2,-1.2218067E-2,8.239546E-2,-9.582531E-2,-6.604126E-3],"split_indices":[5,4,4,5,8,6,5,6,6,6,5,13,5,6,6,0,0,0,0,0,0,0,0,0,0,0,0,0,0,0,0],"split_type":[0,0,0,0,0,0,0,0,0,0,0,0,0,0,0,0,0,0,0,0,0,0,0,0,0,0,0,0,0,0,0],"sum_hessian":[1.5289418E2,7.066777E1,8.222641E1,3.0341875E1,4.0325893E1,3.6853077E1,4.5373333E1,1.637789E1,1.3963985E1,3.344925E1,6.876643E0,2.3166208E1,1.3686867E1,2.841505E1,1.6958284E1,2.6005867E0,1.3777303E1,1.1801094E1,2.1628919E0,1.379552E1,1.965373E1,3.5473294E0,3.3293138E0,2.2065577E1,1.1006318E0,7.605339E0,6.0815277E0,1.1952338E1,1.6462711E1,6.370179E0,1.0588104E1],"tree_param":{"num_deleted":"0","num_feature":"15","num_nodes":"31","size_leaf_vector":"1"}},{"base_weights":[-2.0417538E-3,3.9452267E-1,-2.0020117E-1,-3.8364762E-1,6.754928E-1,-6.5992236E-1,1.2835619E-1,-1.0523193E-1,-5.7035208E-2,3.444251E-1,9.740274E-1,-8.96014E-1,-2.2379324E-1,5.960008E-1,-2.2855215E-1,9.355221E-2,-5.4389894E-2,-1.1424833E-2,9.397001E-2,1.10682165E-2,1.01964965E-1,-9.752019E-2,-4.634356E-2,-8.856232E-2,3.3015065E-2,-5.3752745E-3,8.27314E-2,-5.0265152E-2,3.597154E-2],"categories":[],"categories_nodes":[],"categories_segments":[],"categories_sizes":[],"default_left":[0,0,0,0,0,0,0,0,0,0,0,0,0,0,0,0,0,0,0,0,0,0,0,0,0,0,0,0,0],"id":30,"left_children":[1,3,5,7,9,11,13,-1,15,17,19,21,23,25,27,-1,-1,-1,-1,-1,-1,-1,-1,-1,-1,-1,-1,-1,-1],"loss_changes":[1.1738125E1,1.1141423E1,1.5128054E1,2.9628816E0,3.3145618E0,4.090555E0,9.970466E0,0E0,5.513493E0,5.310952E0,6.3048553E-1,4.6283913E-1,6.1470666E0,3.9192781E0,5.6856246E0,0E0,0E0,0E0,0E0,0E0,0E0,0E0,0E0,0E0,0E0,0E0,0E0,0E0,0E0],"parents":[2147483647,0,0,1,1,2,2,3,3,4,4,5,5,6,6,8,8,9,9,10,10,11,11,12,12,13,13,14,14],"right_children":[2,4,6,8,10,12,14,-1,16,18,20,22,24,26,28,-1,-1,-1,-1,-1,-1,-1,-1,-1,-1,-1,-1,-1,-1],"split_conditions":[1.3699009E1,3.564916E4,8.8906805E4,6.78E2,6.99E2,7.82E2,2.5742085E1,-1.0523193E-1,4.2452006E0,6.816389E4,2.6837756E3,8.097324E4,6.2819305E4,6.42E2,1.338713E5,9.355221E-2,-5.4389894E-2,-1.1424833E-2,9.397001E-2,1.10682165E-2,1.01964965E-1,-9.752019E-2,-4.634356E-2,-8.856232E-2,3.3015065E-2,-5.3752745E-3,8.27314E-2,-5.0265152E-2,3.597154E-2],"split_indices":[5,4,4,6,6,6,5,0,5,4,0,4,4,6,4,0,0,0,0,0,0,0,0,0,0,0,0,0,0],"split_type":[0,0,0,0,0,0,0,0,0,0,0,0,0,0,0,0,0,0,0,0,0,0,0,0,0,0,0,0,0],"sum_hessian":[1.4736726E2,4.877196E1,9.85953E1,1.2841344E1,3.5930614E1,4.0674515E1,5.7920788E1,3.4848702E0,9.356474E0,1.805821E1,1.7872406E1,2.5705032E1,1.4969482E1,2.478109E1,3.3139698E1,2.7758625E0,6.580611E0,1.0655765E1,7.4024444E0,1.0689973E0,1.6803408E1,2.0667282E1,5.037749E0,6.5477424E0,8.42174E0,6.7074986E0,1.8073591E1,2.2705677E1,1.0434021E1],"tree_param":{"num_deleted":"0","num_feature":"15","num_nodes":"29","size_leaf_vector":"1"}},{"base_weights":[-1.8195207E-3,2.4439712E-1,-2.9909492E-1,1.7732074E-2,9.1561687E-1,-6.999531E-1,1.3546821E-1,-3.7109372E-1,3.1719795E-1,2.2487648E-1,1.01056956E-1,-9.258087E-1,-2.968706E-1,3.0175504E-1,-8.67816E-2,1.3992849E-2,-9.000095E-2,-4.0977556E-2,5.2316513E-2,-5.0861765E-2,6.908471E-2,-9.767543E-2,-2.4758529E-2,-9.134825E-2,1.8016277E-2,-8.005961E-3,6.764264E-2],"categories":[],"categories_nodes":[],"categories_segments":[],"categories_sizes":[],"default_left":[0,0,0,0,0,0,0,0,0,0,0,0,0,0,0,0,0,0,0,0,0,0,0,0,0,0,0],"id":31,"left_children":[1,3,5,7,9,11,13,15,17,19,-1,21,23,25,-1,-1,-1,-1,-1,-1,-1,-1,-1,-1,-1,-1,-1],"loss_changes":[1.0536064E1,1.1963285E1,1.1454121E1,7.090334E0,1.0751457E0,2.827938E0,5.621701E0,7.292481E0,5.360266E0,1.6112108E0,0E0,4.9658966E-1,4.1976247E0,4.102783E0,0E0,0E0,0E0,0E0,0E0,0E0,0E0,0E0,0E0,0E0,0E0,0E0,0E0],"parents":[2147483647,0,0,1,1,2,2,3,3,4,4,5,5,6,6,7,7,8,8,9,9,11,11,12,12,13,13],"right_children":[2,4,6,8,10,12,14,16,18,20,-1,22,24,26,-1,-1,-1,-1,-1,-1,-1,-1,-1,-1,-1,-1,-1],"split_conditions":[2.066186E1,8.8906805E4,1.1119488E5,7E2,6.18E2,7.75E2,3.6804554E1,8.42114E0,3.2162723E4,9.752505E4,1.01056956E-1,3.833995E-2,7.754513E4,7.09E2,-8.67816E-2,1.3992849E-2,-9.000095E-2,-4.0977556E-2,5.2316513E-2,-5.0861765E-2,6.908471E-2,-9.767543E-2,-2.4758529E-2,-9.134825E-2,1.8016277E-2,-8.005961E-3,6.764264E-2],"split_indices":[5,4,4,6,6,6,5,5,4,4,0,13,4,6,0,0,0,0,0,0,0,0,0,0,0,0,0],"split_type":[0,0,0,0,0,0,0,0,0,0,0,0,0,0,0,0,0,0,0,0,0,0,0,0,0,0,0],"sum_hessian":[1.4194812E2,7.773906E1,6.420905E1,5.8881657E1,1.8857405E1,3.3082108E1,3.1126945E1,2.5514503E1,3.3367153E1,2.6860237E0,1.6171381E1,2.0370989E1,1.2711118E1,2.7301208E1,3.825738E0,1.3350806E1,1.2163696E1,7.148075E0,2.6219078E1,1.0079172E0,1.6781065E0,1.8538298E1,1.8326917E0,5.145341E0,7.565777E0,1.3911151E1,1.3390057E1],"tree_param":{"num_deleted":"0","num_feature":"15","num_nodes":"27","size_leaf_vector":"1"}},{"base_weights":[-3.0356662E-3,1.3843869E-1,-5.1673573E-1,-7.168816E-2,6.565748E-1,-9.894832E-2,-1.09729595E-1,3.2061186E-1,-3.7639013E-1,1.5804417E-1,8.6149377E-1,-8.122083E-1,3.1855485E-1,-2.0346627E-2,7.1484916E-2,-9.319882E-2,-1.0001871E-2,9.667533E-2,-3.86299E-2,9.601291E-2,2.4235392E-2,-9.913178E-2,-6.092074E-3,8.6535454E-2,-3.2674946E-2],"categories":[],"categories_nodes":[],"categories_segments":[],"categories_sizes":[],"default_left":[0,0,0,0,0,0,0,0,0,0,0,0,0,0,0,0,0,0,0,0,0,0,0,0,0],"id":32,"left_children":[1,3,5,7,9,-1,11,13,15,17,19,21,23,-1,-1,-1,-1,-1,-1,-1,-1,-1,-1,-1,-1],"loss_changes":[1.0144755E1,1.1964961E1,5.69088E0,9.537878E0,3.1004753E0,0E0,5.4700546E0,7.372813E0,6.78615E0,4.9754457E0,1.1247826E0,8.603282E-1,4.333168E0,0E0,0E0,0E0,0E0,0E0,0E0,0E0,0E0,0E0,0E0,0E0,0E0],"parents":[2147483647,0,0,1,1,2,2,3,3,4,4,6,6,7,7,8,8,9,9,10,10,11,11,12,12],"right_children":[2,4,6,8,10,-1,12,14,16,18,20,22,24,-1,-1,-1,-1,-1,-1,-1,-1,-1,-1,-1,-1],"split_conditions":[2.8810717E1,1.0016086E5,1.1768503E5,1.1364166E1,6.45E2,-9.894832E-2,7.31E2,4.1514973E4,6.92E2,4.6743597E-3,2.8311014E-1,1.4318347E5,3.4464996E1,-2.0346627E-2,7.1484916E-2,-9.319882E-2,-1.0001871E-2,9.667533E-2,-3.86299E-2,9.601291E-2,2.4235392E-2,-9.913178E-2,-6.092074E-3,8.6535454E-2,-3.2674946E-2],"split_indices":[5,4,4,5,6,0,6,4,6,10,7,4,5,0,0,0,0,0,0,0,0,0,0,0,0],"split_type":[0,0,0,0,0,0,0,0,0,0,0,0,0,0,0,0,0,0,0,0,0,0,0,0,0],"sum_hessian":[1.3760565E2,1.084647E2,2.9140957E1,7.778224E1,3.0682457E1,1.2819578E1,1.6321379E1,3.3980522E1,4.3801716E1,9.453954E0,2.1228502E1,5.84231E0,1.0479069E1,1.4795745E1,1.9184776E1,1.3762436E1,3.0039282E1,3.491207E0,5.9627466E0,1.7836256E1,3.392247E0,4.459628E0,1.3826817E0,5.487892E0,4.9911766E0],"tree_param":{"num_deleted":"0","num_feature":"15","num_nodes":"25","size_leaf_vector":"1"}},{"base_weights":[-2.962239E-3,1.605435E-1,-4.1446877E-1,-2.2050276E-2,8.387929E-1,-6.636273E-1,3.0602792E-1,-2.9510567E-1,3.2229072E-1,2.096703E-1,9.940984E-1,-9.507958E-2,-2.8077653E-1,6.115981E-1,-6.2075283E-2,5.207674E-2,-4.915185E-2,7.523981E-4,8.0520555E-2,-4.401464E-2,6.227225E-2,1.0227281E-1,2.793294E-2,2.343524E-2,-8.786521E-2,8.605185E-3,9.4220035E-2],"categories":[],"categories_nodes":[],"categories_segments":[],"categories_sizes":[],"default_left":[0,0,0,0,0,0,0,0,0,0,0,0,0,0,0,0,0,0,0,0,0,0,0,0,0,0,0],"id":33,"left_children":[1,3,5,7,9,11,13,15,17,19,21,-1,23,25,-1,-1,-1,-1,-1,-1,-1,-1,-1,-1,-1,-1,-1],"loss_changes":[9.109898E0,1.2020045E1,7.11415E0,7.3657722E0,1.8024502E0,2.9127169E0,3.3749232E0,7.2507887E0,5.2651267E0,1.7079301E0,4.6628952E-2,0E0,4.4605837E0,1.3884392E0,0E0,0E0,0E0,0E0,0E0,0E0,0E0,0E0,0E0,0E0,0E0,0E0,0E0],"parents":[2147483647,0,0,1,1,2,2,3,3,4,4,5,5,6,6,7,7,8,8,9,9,10,10,12,12,13,13],"right_children":[2,4,6,8,10,12,14,16,18,20,22,-1,24,26,-1,-1,-1,-1,-1,-1,-1,-1,-1,-1,-1,-1,-1],"split_conditions":[2.6197643E1,1.03747695E5,1.338713E5,7.33E2,6.23E2,7.65E2,3.6804554E1,4.12587E0,6.765166E4,1.19084375E5,3.211892E-1,-9.507958E-2,3.359993E1,6.96E2,-6.2075283E-2,5.207674E-2,-4.915185E-2,7.523981E-4,8.0520555E-2,-4.401464E-2,6.227225E-2,1.0227281E-1,2.793294E-2,2.343524E-2,-8.786521E-2,8.605185E-3,9.4220035E-2],"split_indices":[5,4,4,6,6,6,5,5,4,4,7,0,5,6,0,0,0,0,0,0,0,0,0,0,0,0,0],"split_type":[0,0,0,0,0,0,0,0,0,0,0,0,0,0,0,0,0,0,0,0,0,0,0,0,0,0,0],"sum_hessian":[1.334064E2,9.590851E1,3.7497894E1,7.632759E1,1.9580915E1,2.7921242E1,9.576654E0,4.2649998E1,3.3677593E1,4.342016E0,1.5238899E1,1.5106619E1,1.2814623E1,7.4578114E0,2.1188424E0,7.95492E0,3.469508E1,2.1003178E1,1.2674417E1,1.6619031E0,2.680113E0,1.4237762E1,1.0011368E0,7.210279E0,5.604344E0,3.3664994E0,4.091312E0],"tree_param":{"num_deleted":"0","num_feature":"15","num_nodes":"27","size_leaf_vector":"1"}},{"base_weights":[-1.6691751E-3,2.6997226E-1,-2.3994075E-1,-7.520856E-2,6.8778044E-1,-6.5973693E-1,8.3065696E-2,1.5667889E-1,-5.783394E-1,2.3168284E-1,8.651941E-1,-9.941268E-2,-3.9357644E-1,3.664508E-1,-3.8312548E-1,-8.366417E-3,9.335912E-2,-7.0797294E-2,1.9600166E-2,-3.6791783E-2,8.604003E-2,9.577749E-2,3.5504233E-2,-8.0693595E-2,1.7781945E-2,1.7902652E-3,9.139073E-2,-7.0446245E-2,1.4939703E-2],"categories":[],"categories_nodes":[],"categories_segments":[],"categories_sizes":[],"default_left":[0,0,0,0,0,0,0,0,0,0,0,0,0,0,0,0,0,0,0,0,0,0,0,0,0,0,0,0,0],"id":34,"left_children":[1,3,5,7,9,11,13,15,17,19,21,-1,23,25,27,-1,-1,-1,-1,-1,-1,-1,-1,-1,-1,-1,-1,-1,-1],"loss_changes":[8.526593E0,8.929977E0,9.570353E0,4.128753E0,2.0611248E0,2.3346176E0,5.497241E0,4.648973E0,1.2562654E0,3.7820466E0,5.930433E-1,0E0,4.562379E0,4.893201E0,2.8120778E0,0E0,0E0,0E0,0E0,0E0,0E0,0E0,0E0,0E0,0E0,0E0,0E0,0E0,0E0],"parents":[2147483647,0,0,1,1,2,2,3,3,4,4,5,5,6,6,7,7,8,8,9,9,10,10,12,12,13,13,14,14],"right_children":[2,4,6,8,10,12,14,16,18,20,22,-1,24,26,28,-1,-1,-1,-1,-1,-1,-1,-1,-1,-1,-1,-1,-1,-1],"split_conditions":[1.8074762E1,6.20582E4,9.887311E4,1.0088925E1,6.48E2,6.765166E4,3.1493954E1,7.8E2,8.3E2,8.8906805E4,1.6648682E1,-9.941268E-2,7.75E2,7.11E2,7.98E2,-8.366417E-3,9.335912E-2,-7.0797294E-2,1.9600166E-2,-3.6791783E-2,8.604003E-2,9.577749E-2,3.5504233E-2,-8.0693595E-2,1.7781945E-2,1.7902652E-3,9.139073E-2,-7.0446245E-2,1.4939703E-2],"split_indices":[5,4,4,5,6,4,5,6,6,4,5,0,6,6,6,0,0,0,0,0,0,0,0,0,0,0,0,0,0],"split_type":[0,0,0,0,0,0,0,0,0,0,0,0,0,0,0,0,0,0,0,0,0,0,0,0,0,0,0,0,0],"sum_hessian":[1.2973602E2,6.0560734E1,6.917529E1,3.3611713E1,2.6949018E1,2.9627434E1,3.954786E1,2.3479065E1,1.0132649E1,8.192782E0,1.8756237E1,1.1918543E1,1.770889E1,2.4729443E1,1.4818417E1,1.8613245E1,4.865821E0,8.753006E0,1.3796443E0,4.405817E0,3.7869654E0,1.5132587E1,3.623649E0,1.0036246E1,7.672645E0,1.5740603E1,8.98884E0,9.040365E0,5.778052E0],"tree_param":{"num_deleted":"0","num_feature":"15","num_nodes":"29","size_leaf_vector":"1"}},{"base_weights":[-7.7663496E-4,1.933224E-1,-3.1205833E-1,-8.115776E-2,6.526466E-1,-7.3152107E-1,1.2072489E-1,2.1274585E-1,-4.7249663E-1,3.2999796E-1,9.1682845E-1,-8.988157E-1,-2.702911E-1,2.8045166E-1,-7.620079E-1,-6.306737E-2,4.0722948E-2,-9.4295174E-2,-6.8139373E-3,-8.854154E-3,9.226782E-2,2.9869283E-2,9.61675E-2,-1.1464459E-2,-9.437462E-2,2.7045393E-2,-8.360008E-2,-2.729697E-2,5.440736E-2,-2.1892643E-2,-8.727722E-2],"categories":[],"categories_nodes":[],"categories_segments":[],"categories_sizes":[],"default_left":[0,0,0,0,0,0,0,0,0,0,0,0,0,0,0,0,0,0,0,0,0,0,0,0,0,0,0,0,0,0,0],"id":35,"left_children":[1,3,5,7,9,11,13,15,17,19,21,23,25,27,29,-1,-1,-1,-1,-1,-1,-1,-1,-1,-1,-1,-1,-1,-1,-1,-1],"loss_changes":[7.7043867E0,9.955355E0,8.978708E0,5.857478E0,2.2110987E0,1.6869316E0,3.733272E0,5.058829E0,4.078746E0,3.7624593E0,1.4663696E-1,5.233145E-1,2.7000132E0,3.3389847E0,5.5183172E-2,0E0,0E0,0E0,0E0,0E0,0E0,0E0,0E0,0E0,0E0,0E0,0E0,0E0,0E0,0E0,0E0],"parents":[2147483647,0,0,1,1,2,2,3,3,4,4,5,5,6,6,7,7,8,8,9,9,10,10,11,11,12,12,13,13,14,14],"right_children":[2,4,6,8,10,12,14,16,18,20,22,24,26,28,30,-1,-1,-1,-1,-1,-1,-1,-1,-1,-1,-1,-1,-1,-1,-1,-1],"split_conditions":[2.2454233E1,7.837491E4,1.16286266E5,1.0981783E1,6.83E2,8.01E2,3.6804554E1,2.8938008E4,7.51E2,1.0778001E5,8.054433E4,3.9306726E-2,2.8179745E1,6.63E2,3.2420868E2,-6.306737E-2,4.0722948E-2,-9.4295174E-2,-6.8139373E-3,-8.854154E-3,9.226782E-2,2.9869283E-2,9.61675E-2,-1.1464459E-2,-9.437462E-2,2.7045393E-2,-8.360008E-2,-2.729697E-2,5.440736E-2,-2.1892643E-2,-8.727722E-2],"split_indices":[5,4,4,5,6,6,5,4,6,4,4,7,5,6,3,0,0,0,0,0,0,0,0,0,0,0,0,0,0,0,0],"split_type":[0,0,0,0,0,0,0,0,0,0,0,0,0,0,0,0,0,0,0,0,0,0,0,0,0,0,0,0,0,0,0],"sum_hessian":[1.2551646E2,7.754339E1,4.797307E1,4.9053566E1,2.8489822E1,2.401091E1,2.3962158E1,2.8274897E1,2.077867E1,1.3838195E1,1.46516285E1,1.6923708E1,7.0872035E0,2.0868402E1,3.0937572E0,4.877926E0,2.339697E1,8.988684E0,1.1789986E1,8.609171E0,5.2290244E0,1.5092621E0,1.3142366E1,1.1095939E0,1.5814114E1,3.8904037E0,3.1967995E0,6.721823E0,1.4146578E1,1.0283289E0,2.0654283E0],"tree_param":{"num_deleted":"0","num_feature":"15","num_nodes":"31","size_leaf_vector":"1"}},{"base_weights":[-2.1571617E-3,1.6315576E-1,-3.403443E-1,8.683966E-3,9.051782E-1,-5.967061E-1,3.3846766E-1,-4.2664665E-1,1.9957913E-1,4.1669935E-1,9.819437E-2,-9.485021E-1,-3.3852604E-1,5.6965625E-1,-5.508852E-2,8.827166E-3,-8.448168E-2,-1.4259996E-2,4.9218174E-2,-1.6588092E-2,7.081976E-2,-2.6297325E-2,-9.9455446E-2,-8.5451454E-2,7.126756E-3,1.7758355E-2,8.849833E-2],"categories":[],"categories_nodes":[],"categories_segments":[],"categories_sizes":[],"default_left":[0,0,0,0,0,0,0,0,0,0,0,0,0,0,0,0,0,0,0,0,0,0,0,0,0,0,0],"id":36,"left_children":[1,3,5,7,9,11,13,15,17,19,-1,21,23,25,-1,-1,-1,-1,-1,-1,-1,-1,-1,-1,-1,-1,-1],"loss_changes":[6.9189353E0,9.521093E0,7.272681E0,5.887302E0,1.2760735E-1,2.3905268E0,2.735148E0,4.725991E0,4.9979343E0,7.426378E-1,0E0,1.1987114E-1,4.03051E0,1.0591695E0,0E0,0E0,0E0,0E0,0E0,0E0,0E0,0E0,0E0,0E0,0E0,0E0,0E0],"parents":[2147483647,0,0,1,1,2,2,3,3,4,4,5,5,6,6,7,7,8,8,9,9,11,11,12,12,13,13],"right_children":[2,4,6,8,10,12,14,16,18,20,-1,22,24,26,-1,-1,-1,-1,-1,-1,-1,-1,-1,-1,-1,-1,-1],"split_conditions":[2.4466227E1,1.03747695E5,1.3245925E5,6.65E2,6.23E2,7.27E2,3.6804554E1,9.482816E0,5.4877336E4,1.19084375E5,9.819437E-2,2.038533E-2,9.970511E4,6.96E2,-5.508852E-2,8.827166E-3,-8.448168E-2,-1.4259996E-2,4.9218174E-2,-1.6588092E-2,7.081976E-2,-2.6297325E-2,-9.9455446E-2,-8.5451454E-2,7.126756E-3,1.7758355E-2,8.849833E-2],"split_indices":[5,4,4,6,6,6,5,5,4,4,0,13,4,6,0,0,0,0,0,0,0,0,0,0,0,0,0],"split_type":[0,0,0,0,0,0,0,0,0,0,0,0,0,0,0,0,0,0,0,0,0,0,0,0,0,0,0],"sum_hessian":[1.2176535E2,8.213406E1,3.9631283E1,6.8819214E1,1.3314854E1,2.8854847E1,1.0776438E1,2.0602E1,4.821721E1,2.6812932E0,1.0633561E1,1.1081458E1,1.7773388E1,8.838364E0,1.9380746E0,9.586486E0,1.1015514E1,2.2462027E1,2.5755182E1,1.037904E0,1.6433892E0,1.1199749E0,9.961484E0,7.3869433E0,1.0386445E1,4.6365376E0,4.201826E0],"tree_param":{"num_deleted":"0","num_feature":"15","num_nodes":"27","size_leaf_vector":"1"}},{"base_weights":[-2.3946033E-3,2.5884888E-1,-2.103017E-1,-1.1376398E-1,6.2263423E-1,-7.024765E-1,3.1264987E-2,1.906253E-1,-5.0969523E-1,2.0187971E-1,8.8430244E-1,-8.7160087E-1,3.586178E-2,2.4074803E-1,-4.5263946E-1,-6.7311995E-2,3.9766748E-2,-9.9754E-2,-2.5110447E-3,8.910497E-2,-2.8489128E-2,3.731694E-2,9.576837E-2,-1.7565386E-2,-9.021541E-2,4.8523184E-2,-6.609568E-2,-1.0765403E-2,7.1483515E-2,-7.640233E-2,4.2879634E-4],"categories":[],"categories_nodes":[],"categories_segments":[],"categories_sizes":[],"default_left":[0,0,0,0,0,0,0,0,0,0,0,0,0,0,0,0,0,0,0,0,0,0,0,0,0,0,0,0,0,0,0],"id":37,"left_children":[1,3,5,7,9,11,13,15,17,19,21,23,25,27,29,-1,-1,-1,-1,-1,-1,-1,-1,-1,-1,-1,-1,-1,-1,-1,-1],"loss_changes":[6.551507E0,7.3171935E0,8.006964E0,3.3817801E0,2.8166027E0,2.7976274E0,4.7727313E0,3.1533513E0,2.839698E0,4.1878815E0,2.6064205E-1,2.2564507E-1,1.914327E0,5.4881268E0,2.0303009E0,0E0,0E0,0E0,0E0,0E0,0E0,0E0,0E0,0E0,0E0,0E0,0E0,0E0,0E0,0E0,0E0],"parents":[2147483647,0,0,1,1,2,2,3,3,4,4,5,5,6,6,7,7,8,8,9,9,10,10,11,11,12,12,13,13,14,14],"right_children":[2,4,6,8,10,12,14,16,18,20,22,24,26,28,30,-1,-1,-1,-1,-1,-1,-1,-1,-1,-1,-1,-1,-1,-1,-1,-1],"split_conditions":[1.7471087E1,5.4877336E4,8.6593875E4,7.574435E0,6.65E2,8.27E2,3.210243E1,6.29E2,7.49E2,9.482816E0,8.0330765E1,9.073629E-5,1.3204722E-2,7.11E2,1.3283734E5,-6.7311995E-2,3.9766748E-2,-9.9754E-2,-2.5110447E-3,8.910497E-2,-2.8489128E-2,3.731694E-2,9.576837E-2,-1.7565386E-2,-9.021541E-2,4.8523184E-2,-6.609568E-2,-1.0765403E-2,7.1483515E-2,-7.640233E-2,4.2879634E-4],"split_indices":[5,4,4,5,6,6,5,6,6,5,9,12,10,6,4,0,0,0,0,0,0,0,0,0,0,0,0,0,0,0,0],"split_type":[0,0,0,0,0,0,0,0,0,0,0,0,0,0,0,0,0,0,0,0,0,0,0,0,0,0,0,0,0,0,0],"sum_hessian":[1.1861973E2,5.245851E1,6.616122E1,2.6254356E1,2.6204157E1,2.115382E1,4.5007397E1,1.513625E1,1.1118107E1,1.072699E1,1.5477166E1,1.7064518E1,4.0893016E0,3.1760647E1,1.3246749E1,2.4914043E0,1.2644845E1,5.0129185E0,6.105188E0,4.0965567E0,6.6304336E0,2.7070074E0,1.2770159E1,1.0014893E0,1.6063028E1,2.6706672E0,1.4186347E0,1.8752522E1,1.3008124E1,7.4783583E0,5.76839E0],"tree_param":{"num_deleted":"0","num_feature":"15","num_nodes":"31","size_leaf_vector":"1"}},{"base_weights":[-2.9807137E-3,1.0973378E-1,-4.4080597E-1,-1.3866575E-2,7.983489E-1,-9.456789E-2,-9.355778E-2,-2.6930612E-1,2.8804493E-1,9.759489E-2,3.323026E-1,-7.426011E-1,2.8885767E-1,3.0499151E-2,-4.8601333E-2,-6.9420926E-2,4.0947728E-2,-3.5213344E-2,8.623152E-2,-9.241646E-2,-4.0628924E-3,7.647842E-2,-2.5781592E-2],"categories":[],"categories_nodes":[],"categories_segments":[],"categories_sizes":[],"default_left":[0,0,0,0,0,0,0,0,0,0,0,0,0,0,0,0,0,0,0,0,0,0,0],"id":38,"left_children":[1,3,5,7,9,-1,11,13,15,-1,17,19,21,-1,-1,-1,-1,-1,-1,-1,-1,-1,-1],"loss_changes":[5.776829E0,7.936378E0,4.112958E0,6.241632E0,8.49947E-1,0E0,4.0141997E0,5.600955E0,4.7112436E0,0E0,2.2737532E0,7.215333E-1,2.8907669E0,0E0,0E0,0E0,0E0,0E0,0E0,0E0,0E0,0E0,0E0],"parents":[2147483647,0,0,1,1,2,2,3,3,4,4,6,6,7,7,8,8,10,10,11,11,12,12],"right_children":[2,4,6,8,10,-1,12,14,16,-1,18,20,22,-1,-1,-1,-1,-1,-1,-1,-1,-1,-1],"split_conditions":[2.8810717E1,1.19084375E5,1.1768503E5,7.27E2,2.5864845E1,-9.456789E-2,7.31E2,5.3029633E0,2.8938008E4,9.759489E-2,1.3057542E5,1.4318347E5,3.4464996E1,3.0499151E-2,-4.8601333E-2,-6.9420926E-2,4.0947728E-2,-3.5213344E-2,8.623152E-2,-9.241646E-2,-4.0628924E-3,7.647842E-2,-2.5781592E-2],"split_indices":[5,4,4,6,5,0,6,5,4,0,4,4,5,0,0,0,0,0,0,0,0,0,0],"split_type":[0,0,0,0,0,0,0,0,0,0,0,0,0,0,0,0,0,0,0,0,0,0,0],"sum_hessian":[1.1507993E2,9.211504E1,2.296489E1,7.892802E1,1.3187021E1,8.656147E0,1.4308743E1,4.2813023E1,3.6114998E1,8.7561455E0,4.4308763E0,4.9557953E0,9.352947E0,1.1617637E1,3.1195387E1,3.45456E0,3.266044E1,2.0802028E0,2.3506732E0,3.685916E0,1.2698792E0,4.786718E0,4.566229E0],"tree_param":{"num_deleted":"0","num_feature":"15","num_nodes":"23","size_leaf_vector":"1"}},{"base_weights":[-3.086323E-3,2.9986402E-1,-1.6412532E-1,-1.7166609E-1,7.1037036E-1,-8.747053E-1,3.5621214E-3,-8.089214E-1,1.3009013E-1,1.0101136E-1,3.828639E-1,-1.9221081E-3,-9.4632024E-1,-1.990387E-1,3.8684887E-1,-1.155821E-1,-1.374339E-2,9.216328E-2,-1.9000696E-2,-7.557947E-3,7.7500924E-2,-9.941612E-2,-1.8789664E-2,-3.8414314E-2,3.6621306E-2,6.795014E-2,-4.420009E-2],"categories":[],"categories_nodes":[],"categories_segments":[],"categories_sizes":[],"default_left":[0,0,0,0,0,0,0,0,0,0,0,0,0,0,0,0,0,0,0,0,0,0,0,0,0,0,0],"id":39,"left_children":[1,3,5,7,9,11,13,15,17,-1,19,-1,21,23,25,-1,-1,-1,-1,-1,-1,-1,-1,-1,-1,-1,-1],"loss_changes":[5.5869565E0,7.816164E0,8.911066E0,3.8175483E0,1.7184334E0,8.565464E-1,4.851282E0,1.3185368E0,3.7128935E0,0E0,2.1903791E0,0E0,2.9048252E-1,4.41811E0,5.5397577E0,0E0,0E0,0E0,0E0,0E0,0E0,0E0,0E0,0E0,0E0,0E0,0E0],"parents":[2147483647,0,0,1,1,2,2,3,3,4,4,5,5,6,6,7,7,8,8,10,10,12,12,13,13,14,14],"right_children":[2,4,6,8,10,12,14,16,18,-1,20,-1,22,24,26,-1,-1,-1,-1,-1,-1,-1,-1,-1,-1,-1,-1],"split_conditions":[1.3699009E1,4.6456445E4,6.663652E4,6.71E2,8.141421E0,1.3683857E-4,7.66E2,6.967505E2,4.2452006E0,1.0101136E-1,6.20582E4,-1.9221081E-3,8.4E2,1.3141378E5,3.4464996E1,-1.155821E-1,-1.374339E-2,9.216328E-2,-1.9000696E-2,-7.557947E-3,7.7500924E-2,-9.941612E-2,-1.8789664E-2,-3.8414314E-2,3.6621306E-2,6.795014E-2,-4.420009E-2],"split_indices":[5,4,4,6,5,12,6,3,5,0,4,0,6,4,5,0,0,0,0,0,0,0,0,0,0,0,0],"split_type":[0,0,0,0,0,0,0,0,0,0,0,0,0,0,0,0,0,0,0,0,0,0,0,0,0,0,0],"sum_hessian":[1.1250895E2,3.874982E1,7.375913E1,1.8305239E1,2.0444582E1,1.3277803E1,6.0481327E1,5.342377E0,1.296286E1,9.586494E0,1.0858088E1,1.1236385E0,1.2154164E1,3.9881268E1,2.060006E1,3.0469809E0,2.2953963E0,3.1915362E0,9.771324E0,5.378056E0,5.480031E0,1.1140595E1,1.0135691E0,3.028437E1,9.596898E0,1.5357706E1,5.242353E0],"tree_param":{"num_deleted":"0","num_feature":"15","num_nodes":"27","size_leaf_vector":"1"}},{"base_weights":[-2.5816804E-3,2.2480205E-1,-2.0971492E-1,-1.27336895E-2,7.630143E-1,-6.1388093E-1,6.788011E-2,-3.0159765E-1,3.606323E-1,8.4702325E-1,1.6401103E-1,-8.6333704E-1,-2.7468255E-1,3.226331E-1,-3.45314E-1,3.3906456E-2,-5.659428E-2,-4.833592E-2,5.2711535E-2,9.312106E-3,8.989537E-2,-4.2111736E-2,6.2499493E-2,-9.951817E-2,-1.6980255E-2,1.8799981E-2,-8.753583E-2,-1.2516829E-2,6.8017505E-2,-7.0495725E-2,1.0994004E-2],"categories":[],"categories_nodes":[],"categories_segments":[],"categories_sizes":[],"default_left":[0,0,0,0,0,0,0,0,0,0,0,0,0,0,0,0,0,0,0,0,0,0,0,0,0,0,0,0,0,0,0],"id":40,"left_children":[1,3,5,7,9,11,13,15,17,19,21,23,25,27,29,-1,-1,-1,-1,-1,-1,-1,-1,-1,-1,-1,-1,-1,-1,-1,-1],"loss_changes":[5.249565E0,6.803075E0,6.5848713E0,4.1910005E0,6.806803E-1,1.7805882E0,3.8455079E0,3.898184E0,2.6386414E0,4.6611118E-1,1.1380609E0,1.0447807E0,3.3806612E0,3.681383E0,2.3717995E0,0E0,0E0,0E0,0E0,0E0,0E0,0E0,0E0,0E0,0E0,0E0,0E0,0E0,0E0,0E0,0E0],"parents":[2147483647,0,0,1,1,2,2,3,3,4,4,5,5,6,6,7,7,8,8,9,9,10,10,11,11,12,12,13,13,14,14],"right_children":[2,4,6,8,10,12,14,16,18,20,22,24,26,28,30,-1,-1,-1,-1,-1,-1,-1,-1,-1,-1,-1,-1,-1,-1,-1,-1],"split_conditions":[1.819803E1,7.446007E4,9.887311E4,7.31E2,2.4285728E-4,7.75E2,3.1493954E1,4.12587E0,2.8938008E4,5.9462334E1,6.45E2,3.5965808E-2,2.4777803E1,6.66E2,7.77E2,3.3906456E-2,-5.659428E-2,-4.833592E-2,5.2711535E-2,9.312106E-3,8.989537E-2,-4.2111736E-2,6.2499493E-2,-9.951817E-2,-1.6980255E-2,1.8799981E-2,-8.753583E-2,-1.2516829E-2,6.8017505E-2,-7.0495725E-2,1.0994004E-2],"split_indices":[5,4,4,6,12,6,5,5,4,11,6,13,5,6,6,0,0,0,0,0,0,0,0,0,0,0,0,0,0,0,0],"split_type":[0,0,0,0,0,0,0,0,0,0,0,0,0,0,0,0,0,0,0,0,0,0,0,0,0,0,0,0,0,0,0],"sum_hessian":[1.0945778E2,5.2137608E1,5.7320168E1,3.685034E1,1.5287266E1,2.2845993E1,3.4474174E1,2.0884636E1,1.5965704E1,1.304384E1,2.2434256E0,1.2274067E1,1.0571927E1,2.146141E1,1.3012764E1,6.0176654E0,1.4866971E1,2.3168745E0,1.3648829E1,1.020588E0,1.20232525E1,1.026706E0,1.2167197E0,9.947964E0,2.3261032E0,6.3600173E0,4.2119093E0,9.816593E0,1.1644817E1,6.9633436E0,6.04942E0],"tree_param":{"num_deleted":"0","num_feature":"15","num_nodes":"31","size_leaf_vector":"1"}},{"base_weights":[-3.2684144E-3,1.647938E-1,-2.5794128E-1,-6.727612E-2,6.1648154E-1,-4.850744E-1,3.7990165E-1,1.8034713E-1,-4.2246622E-1,3.263056E-1,8.8616645E-1,-9.222602E-1,-2.7264643E-1,9.366505E-2,-1.3484535E-2,-2.9776234E-2,5.103916E-2,-6.357854E-2,3.452744E-2,8.555311E-2,-5.787755E-3,2.3892652E-2,9.494892E-2,-2.5949558E-2,-9.676232E-2,-9.621849E-2,-8.96543E-4,-6.457352E-2,5.3474974E-2],"categories":[],"categories_nodes":[],"categories_segments":[],"categories_sizes":[],"default_left":[0,0,0,0,0,0,0,0,0,0,0,0,0,0,0,0,0,0,0,0,0,0,0,0,0,0,0,0,0],"id":41,"left_children":[1,3,5,7,9,11,13,15,17,19,21,23,25,-1,27,-1,-1,-1,-1,-1,-1,-1,-1,-1,-1,-1,-1,-1,-1],"loss_changes":[4.646324E0,6.898047E0,6.4360437E0,3.9559681E0,1.4558783E0,2.7445984E0,2.6172328E0,4.3639665E0,3.2361329E0,2.555287E0,2.229433E-1,5.34544E-2,4.1969757E0,0E0,3.102428E0,0E0,0E0,0E0,0E0,0E0,0E0,0E0,0E0,0E0,0E0,0E0,0E0,0E0,0E0],"parents":[2147483647,0,0,1,1,2,2,3,3,4,4,5,5,6,6,7,7,8,8,9,9,10,10,11,11,12,12,14,14],"right_children":[2,4,6,8,10,12,14,16,18,20,22,24,26,-1,28,-1,-1,-1,-1,-1,-1,-1,-1,-1,-1,-1,-1,-1,-1],"split_conditions":[2.1681334E1,7.837491E4,1.3245925E5,1.0981783E1,6.83E2,8.9952305E4,3.0544418E1,3.564916E4,8.2E2,1.5799611E1,8.054433E4,2.0680944E-2,6.66E2,9.366505E-2,7.48E2,-2.9776234E-2,5.103916E-2,-6.357854E-2,3.452744E-2,8.555311E-2,-5.787755E-3,2.3892652E-2,9.494892E-2,-2.5949558E-2,-9.676232E-2,-9.621849E-2,-8.96543E-4,-6.457352E-2,5.3474974E-2],"split_indices":[5,4,4,5,6,4,5,4,6,5,4,13,6,0,6,0,0,0,0,0,0,0,0,0,0,0,0,0,0],"split_type":[0,0,0,0,0,0,0,0,0,0,0,0,0,0,0,0,0,0,0,0,0,0,0,0,0,0,0,0,0],"sum_hessian":[1.0656359E2,6.4410866E1,4.2152725E1,4.3111782E1,2.1299088E1,3.1260502E1,1.0892223E1,2.5692398E1,1.7419384E1,1.1324301E1,9.974787E0,9.12969E0,2.2130812E1,3.9379518E0,6.9542713E0,1.0532543E1,1.5159856E1,1.3766259E1,3.6531246E0,4.247012E0,7.0772886E0,1.3142829E0,8.660503E0,1.0153651E0,8.114326E0,5.3890743E0,1.6741737E1,3.1470706E0,3.8072007E0],"tree_param":{"num_deleted":"0","num_feature":"15","num_nodes":"29","size_leaf_vector":"1"}},{"base_weights":[-2.4608024E-3,1.2676412E-1,-3.133555E-1,-6.399268E-2,5.8801496E-1,-5.3061575E-1,3.422908E-1,1.7559E-1,-4.1891935E-1,1.1853894E-1,7.703535E-1,-7.328569E-1,-7.081654E-2,6.2069273E-1,-4.796955E-2,-3.2771427E-2,4.5464914E-2,-8.839056E-2,-1.3219865E-2,-4.191571E-2,8.102274E-2,8.580652E-2,3.1408515E-2,-1.1350787E-2,-7.9257645E-2,2.8707897E-2,-7.331672E-2,-5.1452145E-3,7.926313E-2],"categories":[],"categories_nodes":[],"categories_segments":[],"categories_sizes":[],"default_left":[0,0,0,0,0,0,0,0,0,0,0,0,0,0,0,0,0,0,0,0,0,0,0,0,0,0,0,0,0],"id":42,"left_children":[1,3,5,7,9,11,13,15,17,19,21,23,25,27,-1,-1,-1,-1,-1,-1,-1,-1,-1,-1,-1,-1,-1,-1,-1],"loss_changes":[4.245197E0,6.606289E0,4.600703E0,4.641196E0,1.7868142E0,2.15138E0,2.2038283E0,4.7520275E0,2.8085065E0,3.061799E0,3.5563087E-1,5.147276E-1,2.188663E0,8.102143E-1,0E0,0E0,0E0,0E0,0E0,0E0,0E0,0E0,0E0,0E0,0E0,0E0,0E0,0E0,0E0],"parents":[2147483647,0,0,1,1,2,2,3,3,4,4,5,5,6,6,7,7,8,8,9,9,10,10,11,11,12,12,13,13],"right_children":[2,4,6,8,10,12,14,16,18,20,22,24,26,28,-1,-1,-1,-1,-1,-1,-1,-1,-1,-1,-1,-1,-1,-1,-1],"split_conditions":[2.5742085E1,8.8906805E4,1.3645605E5,1.3699009E1,6.42E2,8.01E2,3.6804554E1,3.564916E4,6.2819305E4,1.19084375E5,2.8604633E-1,2.6197643E1,8.0115935E-3,6.33E2,-4.796955E-2,-3.2771427E-2,4.5464914E-2,-8.839056E-2,-1.3219865E-2,-4.191571E-2,8.102274E-2,8.580652E-2,3.1408515E-2,-1.1350787E-2,-7.9257645E-2,2.8707897E-2,-7.331672E-2,-5.1452145E-3,7.926313E-2],"split_indices":[5,4,4,5,6,6,5,4,4,4,7,5,10,6,0,0,0,0,0,0,0,0,0,0,0,0,0,0,0],"split_type":[0,0,0,0,0,0,0,0,0,0,0,0,0,0,0,0,0,0,0,0,0,0,0,0,0,0,0,0,0],"sum_hessian":[1.03677986E2,7.365513E1,3.002286E1,5.2715252E1,2.0939875E1,2.2693617E1,7.3292413E0,3.177307E1,2.0942184E1,6.319317E0,1.4620557E1,1.5348684E1,7.3449335E0,5.657848E0,1.671393E0,1.1270864E1,2.0502205E1,7.193459E0,1.3748725E1,3.7771177E0,2.5421991E0,1.1524505E1,3.096052E0,1.6049083E0,1.3743775E1,5.1362047E0,2.2087288E0,1.2952377E0,4.3626103E0],"tree_param":{"num_deleted":"0","num_feature":"15","num_nodes":"29","size_leaf_vector":"1"}},{"base_weights":[-2.72625E-3,7.638225E-2,-4.8544347E-1,-3.6485523E-2,6.2961423E-1,-7.655873E-1,3.969394E-3,-2.1304189E-1,3.4779048E-1,9.375555E-2,2.786625E-1,-9.161341E-1,1.782485E-2,-7.691741E-2,4.737482E-1,1.230568E-4,-7.149805E-2,4.675028E-3,6.98586E-2,-2.6069418E-2,7.489802E-2,-2.2764413E-2,-9.830989E-2,-3.530335E-2,8.214511E-2],"categories":[],"categories_nodes":[],"categories_segments":[],"categories_sizes":[],"default_left":[0,0,0,0,0,0,0,0,0,0,0,0,0,0,0,0,0,0,0,0,0,0,0,0,0],"id":43,"left_children":[1,3,5,7,9,11,13,15,17,-1,19,21,-1,-1,23,-1,-1,-1,-1,-1,-1,-1,-1,-1,-1],"loss_changes":[3.9300237E0,5.5462103E0,1.9897468E0,5.1226053E0,1.3644629E0,1.4734573E0,2.6416225E0,5.5511518E0,2.4812615E0,0E0,2.3396194E0,1.5034151E-1,0E0,0E0,1.5890629E0,0E0,0E0,0E0,0E0,0E0,0E0,0E0,0E0,0E0,0E0],"parents":[2147483647,0,0,1,1,2,2,3,3,4,4,5,5,6,6,7,7,8,8,10,10,11,11,14,14],"right_children":[2,4,6,8,10,12,14,16,18,-1,20,22,-1,-1,24,-1,-1,-1,-1,-1,-1,-1,-1,-1,-1],"split_conditions":[3.210243E1,1.1961953E5,1.3283734E5,7.73E2,2.5864845E1,8.38E2,7.48E2,1.9279797E1,6.702988E4,9.375555E-2,6.66E2,8.174735E0,1.782485E-2,-7.691741E-2,2.2661371E-2,1.230568E-4,-7.149805E-2,4.675028E-3,6.98586E-2,-2.6069418E-2,7.489802E-2,-2.2764413E-2,-9.830989E-2,-3.530335E-2,8.214511E-2],"split_indices":[5,4,4,6,5,6,6,5,4,0,6,2,0,0,13,0,0,0,0,0,0,0,0,0,0],"split_type":[0,0,0,0,0,0,0,0,0,0,0,0,0,0,0,0,0,0,0,0,0,0,0,0,0],"sum_hessian":[1.0094414E2,8.745383E1,1.3490312E1,7.341093E1,1.4042899E1,8.220523E0,5.2697887E0,5.060566E1,2.2805267E1,6.589501E0,7.453398E0,7.114993E0,1.1055295E0,1.7509059E0,3.518883E0,3.6164818E1,1.4440843E1,1.28828945E1,9.922372E0,3.6794915E0,3.7739067E0,1.0206599E0,6.094333E0,1.0372168E0,2.4816663E0],"tree_param":{"num_deleted":"0","num_feature":"15","num_nodes":"25","size_leaf_vector":"1"}},{"base_weights":[-2.3867516E-3,8.973637E-2,-3.8142064E-1,-1.1683359E-2,7.331544E-1,-9.0548806E-2,-7.699902E-2,-2.529983E-1,2.6248938E-1,9.2298195E-2,3.0870262E-1,-6.7075866E-1,2.5617576E-1,-8.8474555E-3,-8.62623E-2,-5.7971783E-2,3.6592916E-2,-2.7113928E-2,7.913126E-2,-8.590383E-2,-1.0719403E-3,5.1484752E-2,-5.4220952E-2],"categories":[],"categories_nodes":[],"categories_segments":[],"categories_sizes":[],"default_left":[0,0,0,0,0,0,0,0,0,0,0,0,0,0,0,0,0,0,0,0,0,0,0],"id":44,"left_children":[1,3,5,7,9,-1,11,13,15,-1,17,19,21,-1,-1,-1,-1,-1,-1,-1,-1,-1,-1],"loss_changes":[3.5251622E0,5.3097467E0,3.0792704E0,4.7745147E0,6.075988E-1,0E0,2.8580165E0,3.770827E0,3.156978E0,0E0,1.5929508E0,6.3166213E-1,2.2248878E0,0E0,0E0,0E0,0E0,0E0,0E0,0E0,0E0,0E0,0E0],"parents":[2147483647,0,0,1,1,2,2,3,3,4,4,6,6,7,7,8,8,10,10,11,11,12,12],"right_children":[2,4,6,8,10,-1,12,14,16,-1,18,20,22,-1,-1,-1,-1,-1,-1,-1,-1,-1,-1],"split_conditions":[2.8810717E1,1.19084375E5,1.1768503E5,7.22E2,2.5864845E1,-9.0548806E-2,7.31E2,2.066186E1,2.8938008E4,9.2298195E-2,1.3057542E5,1.4318347E5,3.6804554E1,-8.8474555E-3,-8.62623E-2,-5.7971783E-2,3.6592916E-2,-2.7113928E-2,7.913126E-2,-8.590383E-2,-1.0719403E-3,5.1484752E-2,-5.4220952E-2],"split_indices":[5,4,4,6,5,0,6,5,4,0,4,4,5,0,0,0,0,0,0,0,0,0,0],"split_type":[0,0,0,0,0,0,0,0,0,0,0,0,0,0,0,0,0,0,0,0,0,0,0],"sum_hessian":[9.897584E1,8.023757E1,1.8738266E1,7.016029E1,1.0077279E1,6.1597285E0,1.2578537E1,3.7357273E1,3.2803017E1,6.1515813E0,3.9256976E0,4.1570015E0,8.4215355E0,3.0319786E1,7.037486E0,3.0845118E0,2.9718506E1,1.9822559E0,1.9434416E0,2.9997978E0,1.1572036E0,6.6289406E0,1.7925953E0],"tree_param":{"num_deleted":"0","num_feature":"15","num_nodes":"23","size_leaf_vector":"1"}},{"base_weights":[-3.8851511E-3,3.673683E-1,-9.7426884E-2,-3.9847147E-2,9.666528E-2,-6.16155E-1,5.485451E-2,-5.8821553E-1,5.7675624E-1,-3.1078067E-1,-9.3111105E-2,2.868599E-1,-2.1951364E-1,1.5711015E-3,-9.47795E-2,-9.0703333E-4,8.199828E-2,-8.895981E-2,1.6203737E-2,1.1066824E-2,8.08699E-2,-4.4754364E-2,2.7679116E-2],"categories":[],"categories_nodes":[],"categories_segments":[],"categories_sizes":[],"default_left":[0,0,0,0,0,0,0,0,0,0,0,0,0,0,0,0,0,0,0,0,0,0,0],"id":45,"left_children":[1,3,5,7,-1,9,11,13,15,17,-1,19,21,-1,-1,-1,-1,-1,-1,-1,-1,-1,-1],"loss_changes":[3.4433002E0,4.9087286E0,6.287173E0,4.6817937E0,0E0,1.4464297E0,4.016988E0,1.5985668E0,9.407773E-1,3.062659E0,0E0,3.0448678E0,3.4088671E0,0E0,0E0,0E0,0E0,0E0,0E0,0E0,0E0,0E0,0E0],"parents":[2147483647,0,0,1,1,2,2,3,3,5,5,6,6,7,7,8,8,9,9,11,11,12,12],"right_children":[2,4,6,8,-1,10,12,14,16,18,-1,20,22,-1,-1,-1,-1,-1,-1,-1,-1,-1,-1],"split_conditions":[7.68065E0,4.6456445E4,5.9485555E4,6.94E2,9.666528E-2,1.3699009E1,2.4466227E1,3.147907E0,2.4383893E-2,7.28E2,-9.3111105E-2,1.03747695E5,1.3245925E5,1.5711015E-3,-9.47795E-2,-9.0703333E-4,8.199828E-2,-8.895981E-2,1.6203737E-2,1.1066824E-2,8.08699E-2,-4.4754364E-2,2.7679116E-2],"split_indices":[5,4,4,6,0,5,5,5,13,6,0,4,4,0,0,0,0,0,0,0,0,0,0],"split_type":[0,0,0,0,0,0,0,0,0,0,0,0,0,0,0,0,0,0,0,0,0,0,0],"sum_hessian":[9.712079E1,1.895678E1,7.816401E1,1.1842963E1,7.1138177E0,1.7047523E1,6.1116486E1,6.2926836E0,5.550279E0,9.664136E0,7.3833876E0,3.3090046E1,2.8026438E1,2.7053163E0,3.5873675E0,1.9107718E0,3.6395073E0,3.9487042E0,5.715431E0,2.5643837E1,7.4462104E0,1.927067E1,8.755768E0],"tree_param":{"num_deleted":"0","num_feature":"15","num_nodes":"23","size_leaf_vector":"1"}},{"base_weights":[-3.6197237E-3,-4.0529016E-1,7.770277E-2,3.0851805E-1,-5.596409E-1,1.5431418E-1,-5.080258E-1,6.879353E-2,-2.9804958E-2,-2.4990013E-1,-9.5752984E-2,-3.3761043E-2,4.7074848E-1,-7.24499E-1,2.018962E-1,-9.3765855E-2,1.9944614E-2,2.1851698E-2,-5.0647736E-2,9.363772E-2,2.7435929E-2,-9.283629E-2,-2.2798102E-2,-5.1150853E-3,3.5456374E-2],"categories":[],"categories_nodes":[],"categories_segments":[],"categories_sizes":[],"default_left":[0,0,0,0,0,0,0,0,0,0,0,0,0,0,0,0,0,0,0,0,0,0,0,0,0],"id":46,"left_children":[1,3,5,7,9,11,13,-1,-1,15,-1,17,19,21,23,-1,-1,-1,-1,-1,-1,-1,-1,-1,-1],"loss_changes":[3.1565526E0,1.9651384E0,3.6862853E0,1.0190814E0,1.4530754E0,4.2930374E0,1.6112704E0,0E0,0E0,2.9913874E0,0E0,5.597624E0,2.199171E0,5.498657E-1,1.3440424E-1,0E0,0E0,0E0,0E0,0E0,0E0,0E0,0E0,0E0,0E0],"parents":[2147483647,0,0,1,1,2,2,3,3,4,4,5,5,6,6,9,9,11,11,12,12,13,13,14,14],"right_children":[2,4,6,8,10,12,14,-1,-1,16,-1,18,20,22,24,-1,-1,-1,-1,-1,-1,-1,-1,-1,-1],"split_conditions":[6.34E2,4.6743597E-3,3.359993E1,2.6694046E1,1.7926435E1,8.8906805E4,1.40706E5,6.879353E-2,-2.9804958E-2,4.9270934E4,-9.5752984E-2,1.6648682E1,2.066186E1,1.7970097E1,1.627839E1,-9.3765855E-2,1.9944614E-2,2.1851698E-2,-5.0647736E-2,9.363772E-2,2.7435929E-2,-9.283629E-2,-2.2798102E-2,-5.1150853E-3,3.5456374E-2],"split_indices":[6,10,5,5,5,4,4,0,0,4,0,5,5,2,2,0,0,0,0,0,0,0,0,0,0],"split_type":[0,0,0,0,0,0,0,0,0,0,0,0,0,0,0,0,0,0,0,0,0,0,0,0,0],"sum_hessian":[9.467046E1,1.5269106E1,7.940136E1,2.5371282E0,1.2731977E1,7.086852E1,8.532831E0,1.4782906E0,1.0588375E0,8.074424E0,4.657554E0,4.5009865E1,2.585866E1,6.523207E0,2.0096238E0,2.761311E0,5.3131127E0,2.9698298E1,1.5311568E1,6.553258E0,1.9305403E1,4.007877E0,2.5153303E0,1.0064242E0,1.0031996E0],"tree_param":{"num_deleted":"0","num_feature":"15","num_nodes":"25","size_leaf_vector":"1"}},{"base_weights":[-4.7102068E-3,-1.2905492E-1,2.612E-1,4.413787E-1,-2.065505E-1,7.998305E-1,1.1760638E-1,-2.1093853E-1,9.2806414E-2,-7.895054E-1,-7.2551616E-2,1.479104E-3,9.489113E-2,3.2878956E-1,-8.99418E-2,-9.1706984E-2,7.3571965E-2,-1.4906346E-2,-9.055204E-2,4.6768155E-2,-2.3023799E-2,4.9957488E-2,-3.127545E-2],"categories":[],"categories_nodes":[],"categories_segments":[],"categories_sizes":[],"default_left":[0,0,0,0,0,0,0,0,0,0,0,0,0,0,0,0,0,0,0,0,0,0,0],"id":47,"left_children":[1,3,5,7,9,11,13,15,-1,17,19,-1,-1,21,-1,-1,-1,-1,-1,-1,-1,-1,-1],"loss_changes":[3.1391273E0,2.9497108E0,2.2460418E0,2.7523537E0,4.4430304E0,7.1108913E-1,5.6780753E0,3.5195246E0,0E0,6.575384E-1,4.19197E0,0E0,0E0,2.5101018E0,0E0,0E0,0E0,0E0,0E0,0E0,0E0,0E0,0E0],"parents":[2147483647,0,0,1,1,2,2,3,3,4,4,5,5,6,6,7,7,9,9,10,10,13,13],"right_children":[2,4,6,8,10,12,14,16,-1,18,20,-1,-1,22,-1,-1,-1,-1,-1,-1,-1,-1,-1],"split_conditions":[7.73E2,4.12587E0,1.0088925E1,3.639432E4,4.775987E4,8.836414E3,3.2471755E-4,6.68E2,9.2806414E-2,2.1143317E-1,1.3558797E1,1.479104E-3,9.489113E-2,3.4464996E1,-8.99418E-2,-9.1706984E-2,7.3571965E-2,-1.4906346E-2,-9.055204E-2,4.6768155E-2,-2.3023799E-2,4.9957488E-2,-3.127545E-2],"split_indices":[6,5,5,4,4,0,12,6,0,7,5,0,0,5,0,0,0,0,0,0,0,0,0],"split_type":[0,0,0,0,0,0,0,0,0,0,0,0,0,0,0,0,0,0,0,0,0,0,0],"sum_hessian":[9.291992E1,6.3664055E1,2.9255865E1,7.052929E0,5.6611126E1,5.195828E0,2.4060038E1,3.2557468E0,3.797182E0,9.666342E0,4.6944782E1,1.0046567E0,4.191171E0,2.048341E1,3.576627E0,1.8826764E0,1.3730706E0,1.8329113E0,7.8334303E0,1.0162428E1,3.6782356E1,1.6351717E1,4.1316934E0],"tree_param":{"num_deleted":"0","num_feature":"15","num_nodes":"23","size_leaf_vector":"1"}},{"base_weights":[-4.0669558E-3,-4.246975E-1,6.83212E-2,1.3641644E-1,-6.052616E-1,5.12014E-1,-7.275887E-2,-7.861896E-2,7.9740755E-2,-7.8086436E-1,1.2357694E-2,2.586044E-1,8.957433E-2,-5.77388E-1,4.1130565E-2,-9.0416044E-2,-1.4952915E-2,-9.344458E-3,8.731995E-2,-7.602028E-2,2.5604878E-2,-1.8156825E-2,2.8251354E-2],"categories":[],"categories_nodes":[],"categories_segments":[],"categories_sizes":[],"default_left":[0,0,0,0,0,0,0,0,0,0,0,0,0,0,0,0,0,0,0,0,0,0,0],"id":48,"left_children":[1,3,5,7,9,11,13,-1,-1,15,-1,17,-1,19,21,-1,-1,-1,-1,-1,-1,-1,-1],"loss_changes":[2.8358738E0,1.4679277E0,5.0142627E0,3.1546378E0,1.4440084E0,1.6457481E0,3.5412092E0,0E0,0E0,5.35872E-1,0E0,2.9016628E0,0E0,1.9218514E0,2.785694E0,0E0,0E0,0E0,0E0,0E0,0E0,0E0,0E0],"parents":[2147483647,0,0,1,1,2,2,3,3,4,4,5,5,6,6,9,9,11,11,13,13,14,14],"right_children":[2,4,6,8,10,12,14,-1,-1,16,-1,18,-1,20,22,-1,-1,-1,-1,-1,-1,-1,-1],"split_conditions":[3.564916E4,3.147907E0,1.2208581E1,6.68E2,8.31E2,6.1032316E4,6.816389E4,-7.861896E-2,7.9740755E-2,3.2888996E4,1.2357694E-2,7.22E2,8.957433E-2,8.27E2,7.27E2,-9.0416044E-2,-1.4952915E-2,-9.344458E-3,8.731995E-2,-7.602028E-2,2.5604878E-2,-1.8156825E-2,2.8251354E-2],"split_indices":[4,5,5,6,6,4,4,0,0,4,0,6,0,6,6,0,0,0,0,0,0,0,0],"split_type":[0,0,0,0,0,0,0,0,0,0,0,0,0,0,0,0,0,0,0,0,0,0,0],"sum_hessian":[9.118327E1,1.2673514E1,7.850976E1,3.144936E0,9.528579E0,1.8306644E1,6.0203117E1,1.2336322E0,1.9113039E0,7.621025E0,1.9075536E0,1.2033688E1,6.2729573E0,1.0335988E1,4.986713E1,6.014323E0,